//Numpy array shape [32, 16]
//Min -3.468750000000
//Max 1.781250000000
//Number of zeros 13

#ifndef W12_H_
#define W12_H_

#ifndef __SYNTHESIS__
weight12_t w12[512];
#else
weight12_t w12[512] = {0.65625, 0.50000, 0.78125, 0.28125, 0.34375, -0.12500, 0.40625, 0.21875, -0.18750, 0.40625, -0.28125, 0.53125, 0.00000, -0.75000, -0.28125, -0.34375, 0.37500, -0.62500, 0.31250, -0.06250, -0.03125, 0.34375, -0.56250, 0.75000, -0.62500, -0.43750, -0.06250, -0.28125, 0.21875, 0.87500, -2.12500, 0.40625, -0.25000, -0.12500, 0.09375, -0.84375, 0.18750, 0.06250, 0.28125, 0.62500, 0.34375, 0.28125, 0.15625, -0.18750, -0.03125, -0.21875, 0.09375, -1.87500, -0.40625, -0.65625, -0.06250, -0.03125, -0.12500, -1.06250, 0.06250, 0.31250, -0.34375, -2.18750, -0.56250, 0.12500, -0.25000, -0.31250, 0.06250, -0.21875, 0.06250, 0.34375, -0.43750, 0.53125, 0.37500, 0.00000, -0.65625, -0.09375, 0.40625, 0.53125, 0.18750, -0.78125, -0.09375, -0.28125, 0.21875, -0.65625, -0.81250, 0.40625, 1.37500, -0.31250, 1.06250, -0.65625, 0.50000, -0.03125, 0.28125, -0.18750, -0.25000, 0.75000, 1.00000, 0.31250, 0.03125, -0.09375, 0.75000, 0.12500, 0.62500, -0.28125, -0.68750, 0.06250, -0.21875, 0.03125, 0.96875, -0.31250, -0.65625, 0.03125, 0.25000, -0.75000, 0.21875, 0.56250, 0.21875, -0.75000, -0.28125, 0.93750, 0.18750, -0.93750, -0.40625, 0.25000, 0.31250, -0.56250, -0.65625, 0.03125, 0.68750, -0.12500, 0.18750, -0.50000, -0.12500, 0.03125, 1.78125, -0.68750, -0.18750, -0.09375, -1.31250, 0.18750, 0.03125, 0.40625, -0.03125, 0.81250, -0.43750, -0.09375, -0.40625, -0.03125, 0.31250, -0.81250, -0.46875, -0.28125, -0.06250, 0.56250, 0.03125, 0.34375, -0.50000, -0.50000, 0.25000, -0.06250, -0.25000, 0.31250, -0.31250, 0.21875, 0.34375, 0.62500, 0.18750, 0.59375, -0.21875, -0.34375, 1.06250, -0.43750, -0.62500, -0.84375, 0.06250, 0.34375, 0.09375, -1.00000, -0.18750, -0.65625, 0.34375, -0.40625, -0.06250, -0.06250, 0.15625, 0.31250, 0.71875, 0.78125, -0.03125, 0.37500, -1.09375, 0.12500, 0.62500, 1.53125, -0.18750, 0.34375, 1.12500, 0.34375, -1.53125, -0.31250, 0.25000, 0.12500, 0.75000, 0.06250, 0.62500, -0.43750, 0.18750, -0.50000, 0.15625, 0.81250, -0.12500, -0.78125, -0.12500, -0.53125, 0.78125, -0.62500, 0.56250, 0.25000, -0.62500, -0.62500, -0.43750, -0.34375, 0.18750, -0.15625, -0.46875, -0.15625, 0.31250, -0.12500, 1.09375, -0.09375, 0.87500, 0.18750, -0.31250, 0.62500, -0.28125, -1.12500, -0.65625, 0.12500, -0.12500, -0.65625, -0.21875, 0.46875, 0.46875, -0.81250, -0.43750, 0.18750, 0.03125, -0.68750, 1.56250, -0.62500, -0.21875, -0.21875, -0.21875, 0.25000, 0.09375, -0.15625, -0.90625, -0.18750, -0.06250, -1.03125, 0.56250, 0.06250, 0.00000, 0.53125, 0.34375, -3.46875, 0.00000, -0.71875, 0.40625, 0.18750, 0.12500, 0.18750, 0.25000, -0.46875, -0.46875, 0.21875, -0.53125, 0.81250, 0.00000, -0.59375, 0.18750, 0.59375, -0.09375, -0.28125, 0.40625, -0.62500, 0.12500, 0.09375, -0.21875, -0.06250, -0.09375, -0.31250, -0.78125, -0.50000, 0.40625, 0.03125, 0.03125, 0.34375, 0.31250, -0.06250, -0.34375, -0.06250, 0.00000, -0.37500, -0.03125, 0.09375, -1.34375, 0.06250, -0.81250, 0.53125, -0.25000, 0.15625, -1.50000, -0.12500, -0.53125, 0.00000, -0.43750, 0.00000, 0.21875, -0.34375, -0.50000, -0.31250, 0.03125, 1.71875, 0.40625, 0.31250, 0.37500, -1.34375, -0.15625, -0.18750, -0.40625, 0.53125, -0.12500, 0.18750, 0.34375, 0.87500, -1.21875, 0.31250, -0.15625, -0.28125, 0.37500, 0.06250, 0.25000, 0.31250, 0.56250, 0.21875, 0.12500, 1.25000, 0.00000, -0.09375, 0.75000, -0.25000, -0.75000, 0.09375, 0.21875, 0.03125, 0.28125, -0.09375, 0.18750, 0.50000, 0.37500, 0.18750, -0.09375, -0.56250, 0.03125, 0.93750, -1.62500, -0.50000, -0.62500, -0.50000, 0.03125, -0.46875, 0.09375, -0.15625, 0.21875, -0.31250, -0.15625, -0.18750, 0.28125, -0.03125, -0.03125, -0.28125, -0.31250, -1.43750, 0.31250, -0.53125, 0.03125, -0.18750, -0.71875, 0.90625, -0.06250, 0.28125, 0.81250, 0.00000, 0.03125, 1.15625, 0.53125, -0.68750, -1.34375, -0.37500, -0.62500, -0.18750, 0.21875, 0.03125, -0.62500, -0.18750, -0.09375, 0.03125, -0.28125, -0.06250, -0.21875, 0.09375, -0.40625, 0.00000, -0.68750, 0.21875, 0.00000, -0.06250, 0.03125, 0.31250, 0.43750, -0.34375, -0.06250, 0.75000, 0.25000, -0.21875, 0.40625, 0.28125, -0.06250, 0.37500, -1.00000, 0.25000, -0.96875, 0.31250, 0.25000, 0.25000, 0.53125, 0.37500, -0.03125, 1.09375, -0.15625, -0.46875, 0.28125, -1.03125, 0.15625, -1.15625, 0.03125, -0.50000, -0.50000, -0.34375, 0.09375, -0.40625, -0.59375, -0.18750, 0.71875, 0.00000, 0.15625, 0.15625, -0.15625, -0.21875, 0.50000, -0.12500, 0.12500, -0.81250, -0.09375, 0.03125, 0.53125, 1.43750, -1.12500, 0.12500, 0.03125, 0.37500, -0.62500, 1.75000, 0.06250, 0.37500, 0.37500, -0.37500, 0.09375, -0.15625, -0.03125, 0.18750, -0.12500, 0.03125, 0.81250, 0.46875, 0.31250, -0.15625, 0.56250, 0.03125, 0.34375, 0.37500, 0.06250, 0.40625, -0.25000, 0.21875, 0.15625, -0.50000, -0.53125, -0.43750, 0.25000, -0.68750, 0.59375, 0.18750, 0.15625, 0.50000, -1.00000, 0.68750, -1.09375, -0.59375, 0.09375, -0.34375, -0.06250, 0.37500, -2.28125, 0.25000};
#endif

#endif
