//Numpy array shape [16, 6]
//Min -0.312500000000
//Max 0.500000000000
//Number of zeros 2

#ifndef W16_H_
#define W16_H_

#ifndef __SYNTHESIS__
weight16_t w16[96];
#else
weight16_t w16[96] = {-0.15625, -0.06250, 0.03125, -0.18750, -0.06250, 0.34375, 0.21875, 0.31250, 0.18750, -0.06250, -0.15625, 0.43750, -0.15625, 0.15625, -0.09375, 0.18750, -0.09375, 0.31250, 0.21875, 0.15625, -0.21875, 0.09375, -0.12500, 0.09375, 0.31250, -0.12500, 0.18750, -0.06250, 0.06250, 0.34375, -0.15625, -0.12500, -0.21875, -0.15625, -0.03125, 0.06250, 0.18750, 0.15625, 0.31250, 0.18750, 0.06250, 0.25000, 0.21875, 0.34375, 0.43750, 0.15625, 0.12500, -0.28125, -0.06250, 0.40625, 0.50000, -0.03125, 0.18750, -0.18750, 0.40625, -0.12500, 0.37500, 0.12500, -0.06250, 0.25000, 0.03125, -0.31250, 0.06250, -0.03125, 0.06250, -0.03125, 0.21875, 0.31250, 0.34375, -0.18750, -0.15625, 0.46875, 0.50000, 0.00000, 0.43750, 0.09375, 0.06250, -0.15625, 0.06250, -0.21875, -0.15625, 0.21875, -0.03125, 0.15625, -0.21875, -0.28125, -0.06250, 0.03125, 0.03125, -0.09375, -0.15625, -0.21875, 0.00000, -0.15625, 0.06250, 0.03125};
#endif

#endif
