//Numpy array shape [16, 6]
//Min -2.000000000000
//Max 1.781250000000
//Number of zeros 37

#ifndef W16_H_
#define W16_H_

#ifndef __SYNTHESIS__
weight16_t w16[96];
#else
weight16_t w16[96] = {-0.06250, -0.37500, -0.81250, 0.21875, 0.12500, 0.09375, 0.31250, 0.78125, 0.65625, -0.59375, -0.18750, 1.12500, -1.93750, -0.18750, -1.06250, 0.06250, 0.03125, 0.21875, 0.62500, 0.00000, -0.18750, -0.03125, -0.18750, -0.81250, -0.37500, 0.31250, 0.25000, -2.00000, 0.75000, -0.09375, 0.59375, -0.09375, 1.03125, 0.21875, 0.40625, -0.78125, -1.06250, 0.46875, 0.90625, 0.00000, 0.37500, 0.59375, -0.75000, 0.37500, 0.00000, -0.78125, 0.00000, 0.15625, 0.00000, 0.00000, 0.00000, 0.00000, 0.00000, 0.00000, 0.00000, 0.00000, 0.00000, 0.00000, 0.00000, 0.00000, 0.00000, 0.00000, 0.00000, 0.00000, 0.00000, 0.00000, 0.00000, 0.00000, 0.00000, 0.00000, 0.00000, 0.00000, 0.00000, 0.00000, 0.00000, 0.00000, 0.00000, 0.00000, 0.00000, 0.00000, -1.56250, -0.25000, -0.34375, -0.03125, 0.59375, 1.15625, 0.37500, -0.25000, -0.50000, -0.28125, -0.06250, -0.37500, -0.06250, 0.03125, 0.00000, 1.78125};
#endif

#endif
