//Numpy array shape [900, 64]
//Min -0.125000000000
//Max 0.156250000000
//Number of zeros 17212

#ifndef W4_H_
#define W4_H_

#ifndef __SYNTHESIS__
weight4_t w4[57600];
#else
weight4_t w4[57600] = {0.00000, -0.06250, -0.03125, -0.03125, 0.00000, 0.00000, -0.03125, -0.06250, 0.03125, 0.00000, -0.03125, -0.06250, -0.06250, 0.00000, 0.00000, -0.03125, 0.00000, 0.03125, 0.03125, -0.03125, 0.00000, -0.03125, 0.03125, 0.00000, 0.00000, -0.03125, -0.03125, 0.00000, 0.03125, 0.03125, 0.03125, 0.00000, 0.03125, -0.03125, 0.00000, -0.06250, 0.03125, 0.00000, 0.03125, -0.03125, 0.03125, 0.00000, -0.03125, -0.03125, -0.03125, -0.03125, -0.03125, -0.03125, 0.03125, 0.03125, 0.03125, 0.00000, -0.06250, 0.03125, -0.06250, -0.03125, 0.03125, 0.03125, 0.03125, -0.06250, 0.00000, -0.03125, 0.03125, 0.03125, 0.00000, 0.00000, 0.06250, 0.00000, 0.00000, 0.00000, -0.06250, -0.03125, 0.00000, 0.06250, 0.06250, -0.03125, -0.03125, 0.03125, 0.00000, 0.03125, 0.00000, -0.03125, 0.00000, 0.03125, 0.03125, -0.06250, -0.03125, -0.06250, -0.03125, 0.06250, 0.00000, 0.00000, -0.03125, 0.00000, 0.00000, -0.03125, 0.03125, 0.03125, 0.06250, 0.00000, 0.00000, -0.03125, 0.03125, -0.03125, 0.06250, 0.00000, 0.03125, 0.03125, -0.03125, -0.03125, 0.03125, 0.03125, -0.03125, 0.06250, 0.03125, 0.03125, 0.06250, 0.03125, 0.03125, 0.03125, 0.03125, 0.03125, 0.06250, 0.00000, 0.00000, 0.03125, -0.03125, -0.06250, 0.03125, -0.06250, 0.06250, 0.03125, 0.03125, -0.03125, 0.00000, -0.06250, 0.00000, 0.03125, -0.06250, -0.03125, 0.03125, 0.00000, -0.06250, 0.00000, -0.03125, -0.03125, -0.06250, 0.03125, 0.03125, -0.03125, -0.03125, 0.00000, 0.03125, 0.06250, 0.00000, 0.03125, 0.00000, 0.03125, 0.00000, 0.00000, 0.00000, 0.00000, 0.00000, 0.00000, 0.06250, -0.03125, 0.00000, 0.06250, -0.03125, -0.03125, -0.03125, 0.06250, 0.00000, 0.00000, 0.00000, 0.00000, 0.00000, -0.03125, 0.00000, 0.06250, 0.03125, -0.03125, 0.03125, 0.03125, -0.06250, -0.06250, 0.00000, 0.03125, -0.03125, -0.06250, -0.03125, -0.06250, 0.00000, 0.00000, 0.00000, -0.03125, -0.03125, 0.06250, 0.03125, 0.00000, -0.03125, 0.03125, 0.00000, -0.03125, -0.03125, 0.03125, -0.03125, -0.06250, 0.03125, 0.06250, -0.06250, 0.00000, 0.03125, 0.06250, -0.03125, -0.03125, -0.03125, 0.03125, 0.03125, 0.03125, -0.03125, 0.00000, 0.06250, -0.03125, 0.03125, 0.03125, 0.06250, 0.03125, -0.03125, 0.03125, -0.03125, 0.03125, -0.06250, 0.00000, 0.00000, 0.00000, 0.00000, 0.03125, 0.06250, -0.03125, 0.00000, -0.03125, -0.03125, 0.03125, -0.06250, 0.03125, 0.03125, 0.03125, 0.00000, -0.03125, -0.06250, 0.03125, -0.03125, 0.03125, 0.00000, -0.03125, 0.00000, 0.03125, 0.00000, -0.03125, 0.03125, 0.00000, -0.03125, 0.00000, -0.03125, 0.00000, 0.00000, 0.00000, -0.03125, 0.00000, 0.00000, 0.03125, 0.00000, 0.03125, 0.03125, 0.03125, -0.03125, 0.03125, 0.06250, -0.03125, 0.00000, 0.00000, -0.06250, -0.06250, -0.03125, 0.03125, 0.00000, 0.00000, -0.03125, -0.03125, 0.00000, -0.06250, 0.00000, 0.06250, 0.06250, 0.00000, 0.00000, 0.00000, 0.03125, 0.00000, 0.03125, 0.00000, -0.06250, -0.03125, 0.03125, 0.03125, 0.03125, 0.00000, 0.06250, -0.03125, 0.00000, -0.03125, 0.03125, -0.03125, -0.03125, 0.00000, 0.03125, -0.06250, 0.00000, 0.06250, 0.03125, 0.06250, -0.03125, 0.03125, -0.06250, 0.00000, -0.06250, 0.00000, 0.03125, 0.03125, -0.03125, 0.00000, -0.03125, 0.06250, -0.06250, 0.00000, -0.03125, 0.03125, 0.03125, 0.00000, 0.06250, 0.03125, -0.06250, -0.03125, 0.03125, 0.03125, -0.03125, -0.06250, -0.03125, -0.06250, 0.03125, 0.03125, 0.03125, 0.00000, 0.03125, -0.06250, 0.03125, 0.06250, 0.09375, 0.00000, 0.00000, -0.03125, -0.03125, 0.00000, -0.06250, -0.03125, 0.00000, 0.00000, 0.06250, 0.06250, 0.00000, -0.03125, 0.03125, -0.03125, 0.03125, 0.00000, -0.03125, 0.00000, 0.00000, 0.03125, 0.00000, -0.03125, 0.03125, -0.06250, 0.03125, 0.03125, 0.03125, 0.03125, -0.09375, -0.03125, 0.03125, 0.03125, -0.03125, -0.06250, -0.03125, -0.03125, 0.03125, 0.06250, 0.03125, 0.03125, 0.06250, 0.03125, 0.03125, 0.00000, -0.06250, 0.00000, -0.06250, 0.00000, 0.00000, 0.00000, -0.06250, 0.03125, 0.06250, 0.03125, 0.03125, 0.00000, 0.00000, 0.06250, 0.03125, 0.00000, 0.00000, 0.00000, 0.00000, -0.06250, -0.06250, 0.03125, 0.00000, 0.06250, -0.03125, 0.06250, -0.06250, 0.09375, 0.03125, 0.03125, 0.00000, 0.00000, -0.03125, 0.09375, 0.00000, -0.03125, 0.00000, 0.03125, 0.06250, 0.03125, 0.00000, 0.00000, 0.09375, 0.00000, 0.00000, 0.00000, 0.06250, -0.03125, -0.03125, 0.03125, 0.03125, 0.03125, -0.03125, 0.03125, 0.03125, 0.03125, 0.03125, 0.00000, 0.03125, -0.06250, 0.00000, 0.00000, 0.03125, -0.03125, -0.06250, 0.03125, 0.00000, 0.00000, -0.03125, 0.00000, 0.03125, 0.03125, 0.03125, -0.03125, -0.03125, -0.03125, 0.00000, 0.03125, 0.00000, 0.03125, 0.06250, 0.00000, -0.03125, 0.03125, 0.03125, 0.00000, 0.06250, 0.06250, 0.00000, 0.00000, -0.03125, 0.06250, 0.03125, 0.00000, 0.03125, 0.00000, -0.06250, 0.03125, 0.06250, -0.03125, -0.03125, -0.03125, -0.03125, 0.06250, 0.00000, -0.03125, 0.00000, -0.03125, -0.03125, -0.03125, 0.06250, -0.03125, 0.06250, 0.06250, 0.06250, -0.03125, 0.06250, 0.03125, -0.03125, -0.06250, 0.00000, -0.03125, 0.03125, -0.06250, 0.00000, 0.00000, -0.06250, 0.03125, -0.09375, 0.03125, 0.03125, -0.03125, -0.06250, -0.03125, 0.03125, 0.00000, 0.00000, 0.00000, 0.03125, 0.00000, -0.06250, -0.06250, 0.03125, 0.03125, -0.03125, 0.00000, 0.03125, 0.03125, 0.00000, -0.03125, 0.03125, 0.00000, 0.03125, 0.03125, -0.03125, 0.06250, -0.03125, 0.03125, 0.00000, -0.06250, -0.06250, 0.06250, 0.03125, -0.03125, 0.06250, -0.03125, -0.03125, -0.03125, 0.00000, -0.03125, -0.06250, 0.06250, 0.00000, -0.03125, -0.03125, -0.03125, 0.00000, 0.00000, 0.03125, 0.00000, 0.00000, 0.00000, 0.03125, 0.06250, 0.03125, 0.00000, -0.03125, -0.03125, 0.03125, 0.03125, 0.00000, 0.03125, 0.00000, -0.03125, 0.00000, 0.03125, 0.00000, 0.00000, 0.03125, 0.03125, 0.03125, 0.03125, 0.00000, 0.03125, 0.03125, -0.03125, 0.00000, -0.06250, -0.03125, 0.06250, -0.03125, 0.03125, 0.03125, 0.00000, 0.00000, -0.06250, 0.06250, 0.00000, 0.06250, 0.00000, 0.00000, 0.03125, 0.00000, 0.03125, -0.06250, -0.03125, -0.06250, 0.03125, -0.03125, -0.03125, 0.03125, 0.06250, 0.03125, -0.03125, 0.00000, 0.00000, 0.06250, 0.00000, -0.03125, 0.00000, 0.00000, 0.06250, 0.00000, 0.00000, 0.03125, 0.06250, 0.00000, 0.03125, 0.03125, -0.06250, -0.03125, 0.06250, 0.03125, 0.09375, 0.06250, -0.03125, 0.03125, -0.06250, 0.03125, 0.00000, 0.00000, -0.06250, -0.06250, -0.03125, -0.03125, 0.00000, 0.03125, -0.06250, 0.00000, -0.06250, 0.00000, 0.03125, 0.00000, 0.06250, 0.06250, -0.03125, 0.00000, 0.00000, -0.03125, 0.06250, -0.03125, 0.06250, -0.06250, 0.00000, 0.00000, 0.03125, 0.06250, -0.03125, 0.00000, -0.03125, -0.03125, 0.06250, 0.06250, 0.00000, 0.00000, 0.00000, 0.03125, -0.03125, -0.03125, 0.00000, 0.00000, -0.06250, -0.03125, 0.03125, 0.03125, 0.03125, -0.03125, 0.06250, -0.03125, 0.00000, -0.03125, 0.00000, 0.06250, 0.00000, -0.03125, 0.06250, 0.03125, -0.06250, 0.00000, -0.03125, 0.09375, 0.00000, 0.03125, -0.03125, 0.09375, 0.03125, -0.03125, 0.00000, -0.03125, -0.03125, 0.03125, 0.03125, 0.03125, 0.03125, -0.03125, 0.00000, 0.06250, 0.06250, -0.06250, 0.00000, -0.03125, 0.03125, -0.06250, 0.00000, 0.03125, 0.00000, 0.00000, -0.03125, 0.00000, 0.00000, 0.03125, 0.03125, 0.03125, 0.09375, 0.03125, 0.03125, -0.03125, 0.09375, -0.03125, 0.00000, 0.00000, -0.03125, -0.03125, 0.00000, -0.03125, -0.06250, -0.03125, 0.03125, 0.00000, -0.09375, 0.00000, 0.00000, 0.03125, 0.06250, 0.03125, -0.06250, 0.03125, 0.03125, -0.03125, 0.06250, 0.00000, -0.03125, 0.03125, 0.00000, -0.03125, 0.06250, 0.06250, -0.03125, 0.00000, 0.06250, 0.03125, -0.03125, -0.03125, -0.06250, 0.06250, 0.00000, 0.06250, 0.00000, 0.03125, 0.00000, 0.00000, -0.03125, 0.00000, 0.00000, 0.03125, 0.03125, 0.03125, -0.06250, -0.03125, 0.00000, 0.00000, 0.00000, 0.03125, 0.03125, 0.00000, -0.06250, 0.00000, -0.03125, -0.06250, 0.03125, -0.03125, 0.03125, 0.00000, 0.00000, 0.03125, -0.03125, 0.03125, 0.03125, -0.03125, 0.00000, 0.03125, 0.00000, -0.03125, 0.00000, -0.06250, -0.03125, 0.03125, -0.03125, -0.03125, 0.06250, 0.03125, -0.06250, 0.00000, -0.06250, 0.03125, 0.00000, 0.03125, 0.06250, 0.00000, 0.00000, -0.03125, -0.03125, -0.06250, 0.03125, 0.03125, 0.03125, 0.03125, 0.00000, 0.03125, 0.03125, -0.06250, 0.06250, 0.00000, -0.03125, 0.03125, 0.00000, -0.03125, 0.03125, -0.03125, 0.03125, 0.03125, 0.00000, 0.03125, -0.06250, -0.03125, -0.06250, -0.03125, 0.00000, -0.03125, 0.03125, -0.03125, 0.00000, 0.00000, 0.03125, -0.03125, 0.00000, 0.00000, 0.03125, -0.03125, -0.03125, 0.06250, 0.00000, 0.00000, 0.03125, 0.09375, 0.06250, 0.06250, -0.03125, 0.03125, 0.00000, -0.06250, 0.00000, 0.00000, 0.03125, 0.00000, 0.06250, 0.03125, 0.03125, 0.09375, 0.00000, -0.03125, -0.03125, 0.00000, 0.03125, 0.09375, 0.06250, -0.03125, 0.09375, 0.00000, 0.00000, -0.06250, 0.00000, 0.03125, -0.06250, 0.00000, 0.06250, -0.03125, 0.00000, 0.09375, 0.00000, 0.00000, 0.06250, 0.03125, 0.09375, 0.00000, 0.00000, 0.00000, 0.00000, 0.03125, 0.03125, 0.00000, 0.03125, 0.00000, 0.03125, 0.03125, 0.00000, 0.03125, 0.03125, 0.03125, -0.03125, 0.06250, 0.06250, -0.03125, 0.03125, 0.06250, 0.00000, 0.03125, 0.06250, 0.03125, 0.06250, 0.03125, 0.00000, -0.03125, 0.03125, 0.03125, 0.03125, 0.00000, 0.00000, -0.03125, -0.03125, -0.03125, 0.06250, 0.00000, -0.06250, 0.00000, 0.06250, -0.03125, 0.06250, 0.03125, -0.03125, -0.03125, 0.00000, 0.00000, 0.00000, 0.00000, 0.03125, -0.03125, 0.03125, 0.03125, 0.00000, 0.03125, 0.03125, 0.00000, -0.03125, -0.03125, -0.03125, 0.06250, 0.00000, 0.06250, 0.03125, -0.03125, 0.03125, 0.00000, 0.09375, 0.00000, 0.00000, 0.00000, -0.03125, -0.03125, 0.06250, 0.03125, -0.06250, 0.00000, 0.03125, 0.00000, 0.03125, 0.03125, 0.00000, 0.00000, -0.06250, -0.03125, 0.03125, 0.06250, 0.00000, -0.03125, 0.03125, 0.00000, -0.03125, 0.00000, 0.06250, 0.00000, 0.03125, 0.03125, 0.03125, 0.09375, 0.00000, 0.00000, -0.03125, 0.03125, 0.03125, 0.00000, -0.06250, 0.00000, -0.03125, 0.00000, 0.06250, -0.03125, 0.06250, -0.03125, -0.03125, 0.03125, 0.00000, 0.03125, -0.03125, 0.03125, -0.03125, 0.00000, 0.00000, -0.03125, -0.03125, -0.06250, 0.03125, 0.06250, 0.03125, 0.00000, 0.00000, 0.00000, 0.06250, -0.03125, -0.03125, 0.00000, 0.06250, 0.00000, 0.03125, 0.03125, 0.09375, -0.03125, 0.00000, 0.03125, 0.03125, 0.03125, 0.03125, -0.03125, 0.00000, -0.03125, -0.06250, -0.03125, 0.00000, 0.00000, 0.03125, -0.03125, 0.06250, 0.03125, 0.09375, 0.09375, 0.03125, 0.03125, 0.09375, 0.00000, 0.00000, -0.06250, 0.06250, 0.00000, 0.06250, 0.00000, 0.09375, 0.03125, 0.06250, 0.06250, 0.00000, 0.03125, 0.03125, 0.03125, -0.03125, 0.03125, 0.03125, 0.03125, 0.09375, 0.09375, -0.06250, 0.03125, 0.12500, 0.00000, -0.03125, 0.06250, 0.00000, 0.03125, 0.06250, -0.03125, 0.00000, 0.00000, 0.03125, 0.03125, 0.03125, 0.09375, -0.03125, 0.00000, 0.03125, 0.03125, -0.03125, -0.03125, 0.00000, -0.03125, 0.09375, 0.12500, -0.03125, -0.03125, -0.09375, 0.00000, -0.03125, -0.03125, 0.00000, 0.00000, 0.09375, -0.06250, -0.03125, -0.03125, -0.03125, 0.06250, 0.03125, -0.06250, 0.03125, 0.00000, 0.03125, -0.03125, 0.00000, -0.03125, 0.00000, 0.00000, 0.00000, -0.03125, 0.00000, 0.00000, 0.00000, 0.03125, 0.00000, 0.00000, -0.06250, 0.03125, 0.06250, -0.06250, 0.06250, 0.12500, 0.00000, 0.06250, 0.09375, -0.06250, -0.03125, 0.03125, 0.03125, -0.03125, 0.06250, -0.06250, 0.00000, -0.06250, 0.06250, 0.00000, -0.03125, 0.06250, -0.03125, 0.06250, 0.03125, 0.03125, 0.00000, 0.00000, 0.03125, 0.03125, 0.09375, 0.06250, 0.03125, 0.03125, -0.03125, 0.03125, 0.00000, 0.00000, 0.03125, -0.03125, -0.03125, -0.03125, 0.03125, 0.06250, -0.03125, -0.03125, 0.00000, 0.00000, -0.03125, 0.00000, 0.00000, 0.00000, -0.03125, 0.03125, -0.03125, -0.03125, -0.06250, 0.06250, 0.06250, 0.03125, -0.03125, -0.03125, 0.03125, 0.03125, -0.03125, 0.00000, -0.03125, 0.06250, -0.03125, 0.03125, 0.03125, 0.03125, 0.00000, 0.00000, 0.00000, 0.00000, 0.03125, -0.03125, -0.03125, -0.03125, 0.03125, -0.03125, 0.03125, -0.06250, 0.03125, 0.00000, 0.00000, 0.03125, 0.06250, 0.03125, 0.00000, 0.00000, 0.03125, 0.00000, 0.06250, 0.03125, -0.03125, -0.06250, -0.03125, 0.00000, 0.06250, -0.03125, 0.03125, 0.03125, 0.00000, 0.00000, 0.06250, 0.03125, -0.06250, 0.00000, 0.00000, -0.06250, 0.00000, 0.00000, 0.00000, 0.06250, -0.09375, 0.00000, -0.09375, 0.00000, -0.03125, 0.00000, 0.03125, 0.03125, 0.03125, 0.00000, -0.06250, -0.03125, -0.03125, 0.03125, -0.03125, 0.06250, 0.00000, 0.03125, -0.09375, 0.00000, 0.00000, -0.03125, 0.03125, -0.03125, -0.03125, 0.00000, -0.03125, 0.00000, 0.00000, 0.00000, 0.00000, 0.03125, -0.06250, 0.03125, 0.03125, 0.06250, 0.00000, 0.03125, 0.00000, -0.03125, -0.03125, -0.03125, -0.09375, 0.03125, 0.06250, 0.03125, 0.03125, -0.03125, 0.06250, 0.03125, 0.06250, 0.06250, -0.06250, 0.03125, 0.00000, 0.00000, 0.00000, -0.03125, -0.03125, -0.06250, 0.03125, -0.03125, 0.00000, 0.03125, -0.06250, 0.03125, -0.06250, 0.03125, -0.03125, 0.00000, 0.03125, -0.03125, 0.06250, 0.03125, 0.03125, -0.03125, 0.03125, -0.03125, -0.03125, -0.03125, -0.03125, -0.03125, 0.00000, -0.03125, -0.06250, 0.00000, 0.00000, 0.03125, -0.03125, 0.03125, -0.03125, 0.03125, -0.06250, 0.06250, -0.03125, 0.03125, 0.00000, 0.00000, -0.06250, 0.00000, 0.00000, -0.03125, 0.03125, 0.00000, 0.03125, 0.00000, -0.03125, 0.03125, -0.03125, -0.03125, 0.00000, -0.03125, 0.06250, 0.03125, 0.03125, 0.06250, 0.00000, 0.00000, 0.03125, -0.06250, -0.03125, -0.03125, 0.00000, 0.00000, 0.00000, 0.03125, -0.03125, 0.00000, 0.03125, 0.03125, -0.06250, 0.00000, 0.00000, -0.03125, 0.09375, 0.03125, 0.06250, -0.03125, 0.00000, -0.03125, 0.00000, 0.03125, 0.00000, -0.03125, 0.00000, 0.00000, 0.00000, 0.06250, -0.06250, 0.00000, -0.06250, -0.03125, 0.00000, -0.03125, 0.03125, 0.00000, -0.03125, 0.06250, -0.03125, 0.00000, 0.06250, -0.03125, 0.00000, 0.06250, 0.03125, 0.03125, -0.03125, -0.06250, 0.00000, -0.03125, -0.03125, 0.00000, -0.03125, 0.00000, 0.00000, -0.03125, 0.09375, -0.03125, 0.00000, 0.03125, 0.00000, 0.00000, -0.03125, 0.06250, -0.03125, -0.03125, 0.09375, 0.03125, -0.03125, -0.03125, 0.03125, -0.03125, 0.03125, 0.00000, 0.00000, -0.06250, 0.00000, 0.03125, 0.03125, -0.03125, 0.03125, -0.06250, -0.03125, -0.03125, 0.03125, -0.03125, 0.03125, 0.00000, -0.03125, 0.03125, 0.03125, -0.03125, 0.00000, -0.03125, 0.00000, 0.03125, 0.06250, 0.03125, 0.06250, 0.00000, 0.03125, -0.03125, 0.06250, 0.00000, -0.03125, 0.03125, 0.00000, -0.03125, 0.06250, 0.00000, 0.03125, -0.06250, 0.03125, 0.03125, 0.00000, -0.06250, -0.03125, 0.00000, 0.00000, 0.03125, 0.00000, -0.06250, 0.06250, 0.00000, 0.00000, -0.09375, 0.00000, -0.03125, 0.03125, -0.06250, 0.00000, -0.06250, 0.03125, -0.03125, 0.03125, 0.03125, 0.03125, 0.06250, -0.06250, 0.03125, 0.00000, 0.03125, 0.00000, 0.06250, 0.00000, 0.00000, -0.06250, 0.03125, -0.03125, 0.03125, 0.00000, 0.06250, -0.03125, 0.03125, 0.00000, 0.00000, 0.09375, 0.00000, 0.06250, -0.03125, 0.03125, 0.00000, -0.06250, -0.03125, 0.03125, 0.03125, 0.03125, 0.03125, 0.00000, 0.03125, -0.06250, -0.03125, 0.06250, -0.03125, 0.03125, -0.03125, 0.03125, -0.03125, 0.00000, 0.03125, 0.03125, 0.00000, -0.03125, 0.06250, 0.06250, 0.03125, 0.00000, -0.03125, 0.00000, -0.06250, 0.03125, 0.03125, 0.00000, -0.03125, 0.06250, 0.06250, 0.00000, 0.03125, 0.09375, 0.06250, 0.03125, 0.03125, 0.03125, 0.00000, -0.03125, 0.03125, 0.03125, 0.06250, 0.00000, -0.06250, -0.03125, 0.00000, 0.00000, 0.06250, 0.06250, 0.06250, -0.03125, 0.03125, 0.03125, 0.00000, 0.03125, 0.00000, 0.03125, 0.00000, 0.03125, 0.03125, 0.00000, 0.03125, 0.03125, 0.00000, 0.03125, -0.03125, 0.00000, 0.03125, -0.03125, 0.03125, 0.06250, 0.03125, 0.03125, -0.06250, -0.03125, 0.00000, 0.03125, -0.03125, -0.03125, 0.03125, 0.00000, 0.00000, -0.06250, 0.00000, 0.03125, -0.03125, 0.03125, -0.03125, 0.03125, 0.00000, -0.06250, 0.00000, 0.00000, 0.06250, 0.03125, 0.00000, -0.03125, -0.03125, 0.06250, -0.03125, 0.06250, -0.03125, -0.03125, 0.03125, 0.00000, 0.03125, 0.03125, -0.03125, -0.06250, -0.06250, 0.00000, -0.06250, -0.06250, -0.06250, 0.00000, 0.03125, -0.03125, 0.00000, 0.00000, 0.06250, -0.03125, 0.00000, 0.06250, 0.03125, 0.03125, 0.06250, -0.06250, 0.06250, 0.03125, 0.06250, -0.06250, -0.06250, -0.03125, -0.03125, 0.00000, 0.00000, -0.06250, 0.03125, 0.00000, 0.00000, -0.03125, 0.03125, -0.03125, -0.06250, -0.03125, 0.00000, 0.03125, 0.03125, 0.03125, 0.06250, -0.03125, 0.06250, -0.03125, -0.03125, 0.03125, -0.03125, 0.06250, 0.03125, 0.03125, -0.06250, -0.03125, -0.03125, 0.00000, 0.00000, -0.06250, 0.03125, 0.03125, 0.00000, 0.03125, 0.03125, 0.00000, 0.00000, 0.00000, 0.06250, -0.03125, -0.03125, 0.00000, -0.03125, 0.03125, 0.03125, -0.06250, 0.03125, 0.03125, 0.00000, 0.00000, 0.03125, -0.03125, 0.00000, 0.03125, -0.03125, -0.06250, -0.06250, -0.03125, 0.03125, -0.06250, -0.03125, 0.00000, 0.00000, -0.03125, 0.03125, -0.03125, 0.03125, 0.03125, -0.03125, 0.03125, -0.03125, 0.00000, 0.00000, 0.03125, 0.03125, 0.03125, 0.03125, -0.03125, -0.06250, 0.03125, -0.03125, 0.03125, -0.03125, -0.03125, -0.06250, 0.00000, -0.03125, 0.00000, 0.00000, -0.06250, 0.00000, -0.03125, -0.03125, 0.00000, 0.00000, -0.03125, 0.00000, 0.03125, -0.03125, 0.06250, 0.06250, 0.03125, 0.03125, -0.03125, 0.03125, 0.03125, 0.00000, 0.00000, -0.03125, 0.00000, 0.00000, -0.03125, 0.09375, 0.00000, -0.03125, -0.06250, 0.00000, -0.03125, -0.03125, 0.06250, 0.06250, 0.03125, 0.03125, 0.00000, 0.00000, 0.03125, 0.00000, 0.03125, -0.06250, 0.00000, 0.03125, -0.03125, 0.00000, -0.03125, 0.03125, 0.03125, 0.00000, 0.03125, 0.03125, 0.06250, 0.06250, 0.00000, -0.03125, -0.03125, 0.03125, 0.00000, 0.00000, -0.06250, 0.03125, 0.03125, 0.00000, -0.03125, -0.03125, 0.00000, -0.06250, 0.00000, -0.03125, 0.03125, 0.06250, 0.00000, 0.03125, -0.03125, -0.03125, -0.03125, 0.03125, 0.03125, -0.06250, 0.03125, 0.06250, 0.03125, -0.03125, 0.03125, 0.03125, 0.03125, 0.00000, 0.03125, -0.03125, -0.06250, 0.00000, -0.03125, -0.03125, 0.03125, 0.00000, 0.00000, -0.03125, 0.03125, -0.03125, 0.00000, -0.03125, 0.03125, 0.00000, -0.03125, 0.00000, -0.06250, 0.06250, 0.00000, 0.00000, -0.06250, -0.03125, 0.00000, 0.03125, 0.06250, 0.03125, -0.03125, 0.06250, 0.00000, -0.06250, 0.03125, 0.00000, 0.03125, 0.00000, 0.00000, 0.00000, -0.03125, -0.06250, 0.00000, 0.06250, -0.03125, -0.06250, 0.09375, -0.03125, 0.03125, -0.06250, 0.06250, -0.03125, 0.06250, 0.00000, 0.03125, 0.00000, 0.00000, -0.03125, 0.03125, 0.00000, 0.00000, 0.00000, 0.03125, 0.06250, 0.03125, 0.00000, 0.00000, 0.00000, 0.03125, -0.06250, 0.00000, -0.06250, 0.00000, 0.00000, -0.03125, -0.03125, 0.00000, 0.00000, -0.03125, 0.03125, -0.03125, 0.00000, -0.06250, 0.00000, -0.03125, -0.03125, 0.00000, 0.00000, 0.03125, 0.06250, 0.00000, -0.03125, 0.03125, 0.03125, 0.03125, 0.00000, -0.03125, 0.00000, 0.06250, 0.03125, -0.03125, -0.06250, -0.03125, 0.00000, 0.09375, -0.06250, 0.03125, -0.03125, 0.03125, 0.03125, 0.00000, -0.06250, 0.00000, -0.03125, -0.06250, 0.00000, 0.00000, 0.00000, 0.03125, 0.03125, -0.03125, -0.03125, 0.00000, 0.00000, 0.03125, -0.06250, 0.00000, 0.06250, 0.00000, 0.00000, 0.00000, 0.03125, 0.00000, 0.00000, 0.03125, 0.03125, 0.00000, 0.03125, -0.03125, -0.03125, -0.06250, 0.06250, 0.00000, -0.03125, 0.00000, -0.03125, 0.00000, 0.00000, 0.03125, 0.00000, 0.03125, -0.03125, 0.00000, -0.03125, -0.06250, 0.00000, 0.00000, -0.03125, -0.03125, -0.03125, 0.00000, 0.00000, -0.03125, -0.03125, -0.03125, 0.03125, 0.03125, 0.00000, 0.00000, -0.03125, -0.06250, 0.00000, -0.03125, 0.03125, 0.03125, 0.03125, -0.03125, 0.03125, 0.03125, 0.09375, 0.03125, -0.06250, -0.06250, 0.03125, 0.00000, 0.03125, 0.03125, 0.00000, 0.00000, 0.06250, 0.03125, 0.06250, -0.06250, 0.03125, 0.03125, 0.03125, 0.03125, 0.06250, 0.03125, -0.03125, -0.06250, 0.00000, 0.03125, 0.00000, 0.00000, -0.03125, 0.03125, 0.00000, 0.06250, -0.03125, 0.03125, 0.00000, -0.03125, 0.06250, 0.03125, 0.06250, 0.00000, 0.00000, -0.03125, 0.00000, -0.03125, -0.03125, 0.00000, 0.00000, 0.00000, 0.03125, -0.09375, -0.03125, 0.03125, 0.03125, -0.03125, 0.03125, 0.03125, 0.00000, 0.00000, -0.03125, -0.03125, 0.00000, 0.00000, 0.06250, 0.00000, -0.06250, -0.03125, -0.03125, 0.00000, 0.06250, 0.03125, 0.03125, 0.03125, 0.03125, 0.06250, 0.00000, -0.03125, -0.03125, 0.00000, 0.00000, 0.03125, -0.03125, -0.03125, 0.03125, -0.03125, -0.03125, 0.06250, 0.06250, 0.06250, 0.03125, 0.00000, 0.03125, 0.00000, -0.06250, 0.03125, -0.03125, 0.03125, 0.06250, 0.00000, 0.03125, 0.00000, 0.03125, 0.00000, -0.03125, 0.03125, 0.00000, -0.03125, -0.03125, 0.00000, -0.03125, 0.03125, 0.00000, -0.03125, 0.06250, 0.00000, -0.03125, 0.03125, 0.00000, 0.06250, 0.00000, 0.00000, 0.00000, 0.03125, -0.06250, 0.06250, 0.00000, -0.03125, 0.06250, 0.03125, 0.06250, 0.00000, 0.03125, 0.06250, 0.00000, 0.03125, -0.03125, 0.03125, 0.00000, 0.00000, 0.00000, 0.00000, 0.00000, 0.03125, 0.06250, 0.06250, 0.00000, 0.03125, 0.03125, 0.06250, -0.06250, 0.09375, 0.03125, 0.00000, -0.03125, 0.06250, -0.06250, -0.06250, 0.00000, -0.03125, 0.09375, 0.03125, -0.03125, 0.00000, 0.03125, 0.00000, -0.09375, 0.09375, 0.00000, 0.06250, -0.03125, -0.06250, 0.03125, -0.06250, 0.03125, 0.03125, 0.03125, 0.03125, 0.00000, 0.03125, 0.00000, 0.06250, -0.03125, -0.03125, 0.06250, 0.06250, 0.03125, 0.00000, -0.03125, -0.06250, 0.06250, 0.00000, 0.06250, 0.06250, -0.03125, 0.06250, 0.03125, 0.06250, 0.00000, 0.00000, -0.06250, 0.03125, 0.00000, 0.00000, 0.00000, -0.03125, 0.03125, 0.09375, -0.03125, 0.00000, 0.03125, -0.03125, -0.06250, 0.03125, -0.03125, -0.03125, 0.03125, 0.09375, 0.03125, -0.03125, -0.03125, 0.00000, 0.03125, 0.00000, 0.00000, 0.03125, 0.00000, 0.06250, 0.00000, 0.03125, -0.09375, 0.03125, 0.00000, 0.06250, 0.00000, -0.06250, 0.00000, -0.03125, 0.00000, 0.00000, 0.03125, -0.06250, -0.06250, 0.03125, -0.03125, -0.03125, -0.03125, 0.00000, 0.03125, 0.03125, -0.03125, 0.06250, 0.03125, 0.00000, 0.06250, 0.03125, -0.03125, 0.00000, 0.06250, 0.03125, -0.03125, 0.06250, -0.03125, 0.00000, -0.06250, -0.03125, 0.00000, 0.03125, 0.09375, 0.00000, -0.06250, 0.06250, -0.03125, 0.03125, -0.03125, 0.06250, -0.03125, 0.00000, -0.03125, 0.03125, -0.03125, 0.00000, 0.00000, 0.00000, 0.03125, 0.03125, 0.00000, -0.06250, 0.00000, -0.03125, 0.00000, 0.00000, 0.03125, 0.03125, 0.03125, 0.00000, 0.00000, 0.00000, 0.03125, -0.06250, 0.03125, -0.03125, 0.03125, -0.03125, 0.00000, 0.03125, 0.03125, 0.06250, 0.03125, 0.03125, -0.03125, 0.03125, 0.06250, 0.06250, -0.03125, -0.03125, 0.00000, 0.03125, 0.03125, -0.06250, 0.00000, 0.00000, -0.09375, 0.00000, -0.03125, 0.03125, -0.03125, 0.06250, -0.03125, 0.03125, 0.00000, 0.06250, 0.00000, -0.06250, -0.03125, 0.03125, -0.03125, -0.09375, 0.00000, -0.03125, 0.00000, 0.03125, -0.06250, 0.00000, 0.06250, 0.03125, -0.03125, 0.06250, -0.06250, 0.06250, -0.06250, -0.06250, -0.03125, 0.00000, -0.03125, 0.00000, 0.03125, 0.00000, -0.06250, -0.03125, 0.03125, 0.06250, 0.00000, 0.03125, 0.03125, 0.00000, -0.03125, 0.03125, 0.00000, 0.00000, 0.03125, -0.03125, 0.00000, 0.00000, -0.03125, 0.06250, 0.00000, -0.06250, 0.03125, -0.03125, 0.03125, -0.03125, -0.06250, 0.00000, 0.03125, 0.06250, 0.06250, -0.03125, 0.03125, -0.03125, 0.06250, -0.03125, -0.03125, 0.00000, 0.00000, 0.00000, 0.03125, 0.00000, -0.06250, -0.06250, -0.06250, 0.06250, 0.00000, -0.03125, 0.00000, -0.03125, -0.06250, 0.06250, 0.00000, 0.03125, -0.03125, -0.03125, -0.03125, 0.06250, 0.06250, -0.06250, 0.06250, 0.06250, -0.03125, -0.03125, 0.03125, 0.09375, 0.03125, 0.00000, 0.00000, 0.03125, 0.03125, 0.03125, 0.00000, -0.03125, -0.03125, 0.00000, -0.03125, 0.09375, 0.06250, -0.03125, 0.00000, 0.12500, -0.06250, 0.03125, 0.06250, -0.06250, -0.03125, -0.03125, -0.06250, 0.00000, 0.06250, 0.00000, 0.12500, -0.06250, 0.03125, -0.03125, 0.09375, 0.00000, 0.00000, 0.03125, 0.00000, -0.06250, 0.06250, -0.06250, -0.06250, 0.03125, -0.06250, -0.03125, -0.06250, 0.06250, -0.06250, 0.03125, 0.03125, 0.03125, -0.03125, 0.03125, 0.03125, 0.00000, -0.03125, 0.06250, 0.00000, 0.00000, 0.06250, 0.00000, 0.03125, 0.03125, 0.03125, 0.06250, -0.03125, 0.00000, -0.03125, 0.03125, -0.06250, 0.00000, 0.00000, 0.00000, -0.06250, -0.03125, 0.03125, 0.00000, -0.09375, 0.00000, 0.03125, 0.03125, -0.06250, -0.03125, 0.09375, -0.03125, 0.00000, -0.03125, 0.00000, 0.00000, 0.03125, 0.00000, 0.03125, 0.00000, 0.03125, 0.03125, 0.03125, -0.03125, -0.03125, -0.03125, -0.03125, -0.03125, -0.09375, -0.06250, -0.06250, -0.03125, -0.03125, 0.00000, 0.03125, 0.03125, 0.06250, -0.03125, 0.00000, 0.09375, 0.03125, 0.00000, -0.06250, -0.03125, -0.03125, -0.03125, 0.00000, 0.06250, -0.03125, -0.03125, 0.09375, 0.03125, 0.00000, -0.06250, -0.03125, 0.00000, -0.03125, 0.03125, 0.03125, 0.03125, 0.06250, 0.03125, -0.03125, 0.00000, 0.06250, -0.03125, 0.03125, 0.03125, 0.00000, 0.09375, 0.00000, 0.00000, -0.06250, 0.06250, 0.00000, 0.00000, 0.00000, 0.00000, 0.06250, -0.03125, -0.03125, 0.00000, -0.03125, 0.03125, 0.03125, -0.03125, -0.06250, 0.00000, 0.06250, -0.06250, 0.06250, 0.03125, 0.03125, -0.03125, -0.06250, -0.06250, 0.03125, 0.03125, 0.00000, -0.03125, 0.03125, 0.03125, -0.03125, 0.00000, 0.03125, 0.03125, 0.03125, -0.06250, 0.03125, 0.00000, 0.03125, 0.00000, -0.06250, 0.06250, 0.00000, 0.06250, 0.00000, 0.00000, -0.06250, 0.03125, 0.03125, 0.06250, 0.06250, 0.06250, -0.03125, -0.03125, 0.09375, 0.03125, 0.00000, -0.03125, 0.06250, 0.06250, 0.00000, 0.03125, -0.03125, -0.03125, -0.03125, -0.03125, 0.00000, 0.03125, -0.03125, 0.03125, 0.03125, -0.03125, 0.00000, 0.00000, 0.06250, 0.00000, 0.03125, 0.03125, 0.03125, 0.03125, -0.03125, 0.03125, 0.00000, -0.03125, 0.03125, 0.03125, 0.03125, 0.06250, 0.00000, 0.06250, -0.03125, -0.06250, -0.06250, 0.00000, 0.03125, -0.03125, -0.06250, -0.03125, -0.06250, 0.00000, -0.03125, 0.03125, -0.03125, -0.03125, -0.06250, 0.03125, 0.03125, 0.03125, 0.00000, 0.03125, 0.06250, -0.03125, 0.03125, -0.03125, 0.03125, 0.03125, 0.00000, -0.03125, 0.00000, 0.06250, -0.03125, 0.06250, -0.03125, 0.06250, 0.06250, -0.06250, -0.03125, 0.06250, 0.00000, 0.00000, -0.03125, 0.03125, -0.03125, 0.06250, 0.03125, 0.06250, 0.03125, 0.03125, 0.00000, -0.03125, -0.03125, -0.03125, 0.03125, 0.06250, -0.03125, 0.03125, -0.03125, 0.00000, -0.06250, -0.06250, 0.03125, 0.03125, -0.03125, 0.03125, 0.00000, 0.00000, 0.00000, -0.03125, -0.03125, 0.03125, 0.03125, 0.03125, 0.03125, 0.06250, 0.00000, 0.03125, 0.03125, -0.03125, 0.00000, 0.03125, 0.00000, -0.06250, 0.00000, 0.09375, 0.09375, -0.03125, 0.00000, 0.03125, 0.03125, -0.03125, -0.03125, -0.03125, -0.03125, 0.00000, 0.00000, -0.06250, -0.03125, 0.03125, 0.03125, 0.03125, 0.06250, -0.03125, -0.03125, -0.03125, 0.03125, -0.03125, -0.03125, -0.03125, 0.03125, 0.03125, 0.00000, -0.06250, -0.03125, 0.06250, 0.06250, 0.03125, -0.03125, -0.03125, 0.06250, 0.09375, 0.00000, 0.03125, 0.00000, -0.03125, 0.00000, 0.03125, 0.03125, 0.03125, 0.03125, -0.03125, 0.03125, -0.03125, 0.06250, -0.03125, -0.03125, 0.00000, 0.00000, 0.00000, 0.00000, 0.06250, 0.03125, 0.00000, -0.03125, -0.06250, 0.03125, -0.03125, 0.03125, 0.06250, 0.03125, 0.06250, 0.00000, 0.03125, -0.03125, -0.06250, -0.03125, 0.03125, 0.00000, 0.03125, -0.03125, -0.03125, 0.09375, 0.09375, 0.06250, 0.00000, 0.00000, 0.03125, 0.00000, 0.00000, 0.00000, 0.00000, -0.03125, 0.03125, -0.03125, 0.00000, -0.03125, 0.00000, 0.00000, -0.03125, 0.00000, -0.06250, -0.03125, 0.00000, -0.03125, 0.00000, 0.06250, 0.00000, 0.03125, 0.03125, 0.00000, 0.00000, 0.06250, 0.03125, 0.00000, 0.00000, 0.03125, -0.03125, 0.00000, 0.03125, 0.06250, 0.03125, -0.06250, 0.03125, -0.06250, -0.03125, 0.00000, 0.00000, 0.00000, 0.03125, 0.03125, 0.00000, 0.00000, 0.00000, 0.06250, 0.06250, 0.09375, -0.03125, -0.06250, 0.06250, 0.06250, 0.00000, 0.03125, 0.03125, -0.03125, -0.06250, -0.03125, 0.06250, -0.03125, 0.00000, -0.03125, -0.06250, 0.03125, 0.00000, 0.06250, 0.03125, -0.06250, -0.06250, 0.03125, 0.00000, 0.03125, 0.00000, -0.03125, 0.00000, 0.00000, -0.03125, -0.03125, 0.03125, 0.09375, 0.00000, 0.00000, 0.00000, -0.03125, 0.00000, 0.00000, 0.00000, 0.06250, 0.00000, 0.03125, 0.00000, 0.00000, 0.03125, -0.03125, -0.06250, -0.03125, 0.06250, 0.00000, -0.09375, 0.00000, -0.09375, -0.03125, -0.03125, 0.00000, 0.00000, -0.03125, 0.03125, -0.06250, 0.03125, -0.06250, 0.03125, -0.06250, 0.00000, 0.00000, 0.03125, 0.00000, 0.00000, 0.03125, 0.00000, -0.03125, -0.03125, 0.00000, -0.06250, -0.06250, -0.03125, 0.03125, 0.03125, 0.00000, 0.00000, -0.03125, 0.06250, 0.06250, 0.00000, 0.00000, 0.03125, 0.00000, 0.00000, 0.03125, 0.00000, 0.06250, 0.00000, 0.06250, 0.06250, 0.03125, 0.06250, -0.06250, 0.03125, 0.03125, 0.03125, 0.06250, 0.03125, 0.03125, 0.03125, -0.03125, 0.03125, 0.00000, 0.00000, -0.03125, 0.06250, 0.00000, 0.00000, -0.03125, 0.06250, 0.00000, 0.06250, -0.03125, -0.03125, -0.03125, 0.06250, 0.00000, 0.03125, 0.03125, -0.03125, 0.00000, 0.00000, -0.03125, 0.06250, -0.03125, 0.00000, 0.03125, 0.00000, -0.06250, -0.03125, 0.03125, -0.06250, -0.06250, 0.03125, 0.00000, 0.03125, -0.03125, 0.06250, 0.03125, -0.03125, 0.03125, -0.06250, 0.00000, -0.03125, 0.00000, 0.03125, -0.06250, -0.03125, 0.03125, 0.00000, -0.03125, 0.03125, 0.03125, 0.06250, 0.00000, 0.03125, 0.06250, -0.03125, 0.00000, -0.06250, -0.03125, -0.06250, 0.00000, 0.03125, -0.03125, 0.00000, 0.00000, 0.03125, -0.03125, 0.03125, -0.03125, 0.06250, -0.06250, -0.03125, 0.00000, 0.00000, 0.06250, 0.00000, 0.00000, 0.00000, 0.03125, 0.06250, 0.00000, 0.00000, 0.00000, -0.06250, 0.00000, -0.06250, 0.00000, 0.00000, 0.03125, 0.06250, 0.00000, 0.00000, 0.00000, 0.03125, 0.03125, -0.03125, 0.06250, 0.00000, -0.06250, 0.03125, 0.03125, 0.03125, -0.03125, 0.00000, 0.03125, 0.06250, 0.00000, -0.03125, 0.00000, 0.00000, 0.03125, 0.03125, -0.06250, -0.06250, 0.03125, 0.03125, 0.06250, 0.06250, 0.00000, 0.00000, 0.00000, 0.00000, 0.06250, 0.00000, 0.03125, -0.03125, 0.00000, 0.03125, 0.03125, -0.03125, 0.00000, -0.03125, 0.00000, -0.03125, -0.06250, 0.03125, 0.03125, 0.00000, 0.03125, 0.06250, 0.03125, -0.06250, 0.03125, -0.03125, 0.00000, 0.00000, 0.00000, -0.03125, 0.00000, -0.06250, -0.03125, 0.00000, 0.00000, 0.00000, 0.03125, 0.03125, 0.00000, 0.03125, 0.06250, 0.00000, 0.06250, 0.00000, -0.03125, -0.06250, -0.06250, -0.03125, 0.03125, 0.00000, 0.00000, 0.06250, 0.00000, -0.03125, -0.06250, 0.06250, 0.03125, -0.06250, -0.03125, -0.03125, 0.00000, -0.03125, 0.06250, 0.03125, 0.03125, 0.00000, 0.00000, 0.00000, -0.06250, 0.00000, 0.09375, 0.06250, 0.09375, 0.03125, 0.03125, 0.00000, 0.00000, -0.03125, -0.03125, 0.00000, 0.00000, 0.03125, -0.06250, 0.00000, -0.03125, 0.00000, -0.03125, 0.06250, -0.03125, 0.00000, 0.03125, 0.03125, 0.06250, 0.00000, 0.03125, -0.03125, 0.03125, -0.03125, 0.06250, 0.03125, -0.06250, 0.06250, 0.03125, 0.00000, 0.00000, 0.03125, -0.03125, 0.03125, 0.03125, 0.00000, 0.00000, -0.06250, 0.00000, 0.03125, 0.00000, 0.06250, 0.00000, 0.00000, 0.00000, 0.06250, -0.06250, 0.06250, -0.03125, -0.03125, 0.00000, 0.00000, 0.00000, -0.03125, 0.03125, 0.00000, 0.00000, -0.03125, -0.06250, 0.06250, 0.03125, 0.03125, -0.03125, 0.03125, 0.03125, -0.03125, 0.06250, -0.03125, -0.03125, 0.03125, 0.03125, 0.06250, 0.00000, 0.03125, 0.06250, 0.00000, 0.03125, 0.03125, 0.00000, 0.06250, 0.00000, 0.06250, -0.03125, 0.00000, 0.03125, 0.03125, -0.03125, -0.06250, 0.00000, 0.03125, -0.03125, 0.03125, 0.00000, 0.00000, -0.03125, 0.00000, 0.03125, 0.00000, -0.03125, -0.03125, 0.00000, -0.06250, -0.03125, -0.03125, 0.03125, -0.03125, 0.06250, -0.03125, -0.03125, 0.03125, -0.03125, 0.03125, 0.00000, 0.00000, -0.03125, 0.00000, 0.03125, -0.03125, 0.00000, 0.00000, -0.06250, 0.00000, 0.03125, 0.06250, 0.06250, 0.03125, -0.03125, 0.03125, 0.03125, -0.03125, 0.03125, -0.06250, 0.00000, 0.00000, 0.00000, -0.03125, 0.06250, 0.03125, 0.06250, 0.00000, -0.03125, 0.03125, 0.00000, 0.03125, 0.03125, 0.03125, -0.03125, 0.00000, -0.06250, -0.06250, 0.00000, 0.03125, -0.03125, -0.09375, -0.06250, 0.00000, 0.00000, 0.06250, -0.03125, -0.06250, 0.03125, 0.03125, 0.03125, -0.03125, -0.03125, -0.06250, 0.03125, -0.06250, -0.03125, -0.03125, 0.06250, 0.06250, 0.00000, -0.03125, 0.06250, 0.03125, -0.03125, 0.00000, -0.03125, 0.06250, -0.03125, 0.03125, 0.06250, -0.03125, 0.03125, -0.03125, 0.03125, 0.03125, -0.03125, -0.03125, 0.03125, -0.03125, 0.03125, -0.06250, -0.03125, -0.03125, -0.03125, 0.03125, 0.00000, 0.03125, 0.00000, 0.03125, -0.03125, 0.06250, 0.00000, 0.03125, 0.03125, 0.03125, -0.03125, 0.00000, 0.03125, 0.00000, -0.06250, 0.06250, 0.00000, 0.03125, -0.03125, 0.00000, -0.03125, 0.00000, -0.03125, -0.06250, 0.03125, 0.03125, 0.03125, 0.00000, 0.03125, 0.03125, 0.03125, 0.00000, 0.03125, 0.00000, 0.03125, 0.00000, -0.03125, 0.03125, 0.00000, 0.00000, 0.03125, -0.06250, -0.03125, 0.00000, -0.03125, 0.09375, -0.06250, 0.00000, 0.00000, 0.03125, -0.03125, 0.00000, 0.09375, -0.03125, 0.03125, 0.03125, -0.06250, -0.03125, -0.06250, 0.00000, 0.06250, 0.00000, 0.00000, 0.00000, -0.03125, -0.03125, 0.00000, 0.03125, -0.03125, -0.03125, 0.00000, 0.03125, 0.00000, 0.00000, -0.06250, -0.03125, 0.03125, 0.00000, 0.03125, -0.03125, 0.03125, -0.03125, -0.03125, 0.03125, -0.03125, -0.03125, -0.03125, 0.06250, 0.03125, 0.00000, 0.03125, 0.00000, -0.06250, 0.06250, -0.06250, 0.03125, 0.03125, 0.06250, -0.03125, -0.03125, 0.00000, 0.06250, 0.03125, -0.06250, -0.03125, 0.00000, 0.03125, 0.03125, -0.06250, 0.06250, 0.03125, -0.06250, -0.03125, 0.00000, 0.00000, -0.03125, -0.03125, 0.00000, 0.06250, -0.03125, 0.03125, 0.03125, 0.00000, -0.03125, 0.06250, 0.09375, -0.06250, 0.00000, 0.00000, 0.00000, -0.03125, -0.03125, 0.03125, 0.06250, 0.00000, 0.06250, 0.03125, 0.00000, 0.03125, 0.00000, 0.06250, 0.00000, 0.00000, 0.03125, 0.03125, 0.03125, 0.03125, 0.09375, 0.06250, -0.03125, 0.03125, 0.00000, 0.00000, 0.00000, 0.09375, 0.03125, 0.00000, 0.03125, 0.00000, 0.00000, -0.06250, 0.00000, 0.03125, 0.03125, -0.06250, 0.03125, 0.06250, 0.03125, -0.06250, 0.06250, 0.00000, 0.00000, 0.00000, 0.00000, 0.00000, 0.03125, -0.06250, 0.00000, 0.00000, -0.03125, -0.06250, 0.00000, 0.03125, 0.00000, -0.03125, 0.00000, 0.00000, 0.03125, 0.03125, -0.03125, 0.03125, -0.03125, 0.00000, 0.00000, 0.03125, 0.09375, 0.00000, 0.03125, 0.03125, 0.09375, -0.03125, 0.03125, 0.03125, 0.06250, 0.06250, 0.06250, 0.06250, 0.00000, -0.03125, 0.06250, 0.09375, -0.03125, 0.03125, -0.03125, 0.00000, -0.06250, 0.03125, 0.03125, 0.00000, 0.00000, -0.03125, 0.03125, 0.00000, -0.03125, 0.00000, 0.03125, -0.03125, 0.03125, -0.03125, 0.06250, 0.03125, 0.00000, 0.03125, 0.03125, -0.03125, 0.03125, 0.00000, -0.03125, 0.00000, 0.06250, 0.06250, 0.00000, 0.00000, -0.03125, 0.00000, -0.03125, 0.00000, 0.00000, -0.09375, 0.00000, 0.03125, 0.03125, 0.06250, -0.03125, 0.03125, -0.03125, 0.03125, 0.00000, 0.06250, 0.03125, 0.00000, 0.03125, 0.03125, -0.06250, -0.03125, 0.06250, 0.03125, 0.03125, 0.00000, 0.03125, 0.06250, 0.00000, 0.03125, 0.03125, 0.00000, 0.00000, 0.03125, -0.03125, 0.00000, 0.00000, -0.03125, -0.06250, -0.03125, 0.00000, 0.03125, -0.03125, 0.03125, -0.03125, 0.00000, 0.00000, -0.03125, -0.06250, 0.06250, 0.03125, 0.00000, 0.03125, 0.03125, -0.03125, -0.03125, 0.03125, -0.03125, -0.03125, 0.06250, 0.06250, -0.03125, -0.03125, 0.09375, 0.03125, 0.00000, -0.06250, 0.00000, 0.00000, -0.03125, -0.06250, 0.00000, 0.03125, 0.00000, 0.00000, 0.03125, -0.06250, 0.03125, 0.00000, 0.00000, 0.06250, -0.03125, 0.00000, 0.06250, 0.06250, -0.03125, 0.00000, -0.03125, 0.03125, -0.03125, 0.03125, 0.03125, 0.06250, 0.03125, 0.06250, 0.03125, -0.06250, 0.00000, 0.03125, 0.03125, -0.03125, 0.03125, -0.03125, 0.00000, -0.03125, 0.03125, 0.00000, 0.03125, 0.03125, 0.00000, 0.06250, 0.03125, -0.03125, 0.03125, -0.03125, -0.03125, 0.03125, -0.03125, 0.03125, 0.00000, 0.03125, 0.00000, -0.06250, -0.03125, 0.03125, 0.03125, -0.09375, 0.06250, -0.03125, -0.03125, -0.03125, 0.00000, -0.03125, -0.03125, 0.00000, 0.03125, 0.06250, 0.00000, -0.03125, 0.00000, -0.03125, -0.03125, 0.00000, -0.03125, 0.03125, 0.00000, -0.03125, 0.03125, -0.06250, 0.00000, -0.03125, 0.06250, 0.03125, 0.00000, 0.00000, -0.06250, 0.03125, -0.03125, 0.03125, -0.06250, -0.03125, -0.03125, 0.00000, 0.06250, 0.06250, -0.03125, 0.03125, 0.00000, -0.03125, 0.06250, 0.09375, 0.00000, 0.00000, -0.03125, 0.03125, 0.09375, -0.03125, 0.00000, 0.06250, 0.03125, 0.03125, 0.03125, 0.06250, 0.03125, 0.00000, 0.00000, 0.03125, -0.06250, 0.06250, -0.03125, 0.03125, -0.03125, 0.00000, 0.00000, -0.03125, 0.03125, -0.03125, -0.06250, 0.03125, 0.00000, -0.03125, 0.00000, -0.03125, -0.03125, -0.06250, -0.03125, 0.06250, -0.03125, 0.00000, -0.06250, 0.06250, 0.03125, 0.09375, -0.09375, 0.00000, 0.06250, 0.03125, 0.06250, 0.00000, 0.00000, -0.03125, 0.03125, 0.00000, 0.00000, 0.00000, 0.09375, 0.00000, 0.03125, -0.03125, -0.03125, 0.03125, 0.00000, -0.03125, 0.00000, 0.06250, 0.00000, 0.00000, 0.00000, 0.03125, 0.03125, -0.06250, 0.03125, -0.03125, -0.03125, 0.03125, -0.03125, 0.00000, 0.03125, -0.03125, 0.03125, 0.03125, 0.00000, 0.06250, 0.06250, 0.03125, 0.00000, -0.03125, 0.03125, -0.03125, 0.03125, 0.00000, 0.03125, -0.06250, 0.00000, -0.06250, 0.03125, 0.03125, 0.03125, 0.03125, -0.06250, -0.06250, 0.00000, -0.03125, 0.06250, 0.00000, 0.03125, 0.00000, 0.00000, -0.03125, 0.00000, 0.00000, 0.00000, 0.00000, 0.00000, 0.03125, -0.03125, -0.03125, -0.03125, 0.03125, 0.03125, -0.06250, -0.03125, 0.00000, -0.03125, 0.00000, -0.03125, 0.00000, -0.03125, -0.03125, -0.03125, 0.00000, -0.03125, 0.00000, -0.03125, -0.03125, -0.03125, -0.03125, 0.00000, 0.03125, 0.06250, 0.03125, 0.06250, 0.03125, 0.06250, 0.03125, 0.00000, 0.00000, 0.03125, -0.06250, 0.00000, 0.03125, 0.00000, 0.03125, 0.03125, 0.03125, 0.00000, 0.06250, 0.03125, 0.03125, 0.03125, 0.00000, -0.03125, -0.03125, -0.06250, -0.06250, 0.00000, -0.03125, 0.00000, 0.03125, -0.06250, 0.03125, 0.06250, -0.03125, 0.03125, 0.00000, 0.03125, 0.03125, -0.06250, 0.03125, 0.03125, 0.00000, 0.00000, -0.03125, 0.00000, 0.00000, -0.03125, 0.03125, 0.03125, 0.00000, -0.03125, 0.03125, -0.03125, -0.06250, -0.03125, 0.03125, 0.06250, -0.03125, 0.00000, -0.06250, 0.00000, 0.06250, -0.03125, 0.00000, 0.00000, -0.06250, 0.00000, -0.06250, -0.03125, 0.03125, 0.09375, -0.06250, 0.03125, 0.03125, 0.00000, 0.00000, 0.00000, 0.03125, 0.00000, -0.03125, -0.03125, 0.00000, -0.03125, 0.00000, -0.03125, -0.06250, -0.03125, 0.06250, 0.03125, 0.03125, -0.03125, -0.03125, 0.00000, -0.06250, 0.03125, 0.03125, 0.00000, -0.03125, 0.00000, 0.00000, -0.03125, 0.00000, 0.03125, 0.06250, 0.03125, 0.00000, 0.03125, -0.03125, 0.00000, 0.00000, -0.03125, 0.03125, 0.00000, -0.03125, 0.00000, -0.03125, 0.06250, -0.03125, 0.00000, 0.06250, 0.03125, 0.00000, -0.06250, 0.03125, -0.06250, -0.03125, -0.06250, 0.00000, -0.03125, 0.03125, 0.00000, -0.03125, -0.06250, 0.06250, 0.00000, 0.00000, 0.03125, 0.00000, 0.00000, 0.00000, 0.06250, 0.03125, 0.00000, 0.03125, -0.06250, -0.03125, -0.06250, -0.06250, 0.03125, 0.03125, -0.03125, 0.00000, 0.00000, 0.03125, 0.00000, -0.03125, 0.03125, -0.03125, -0.06250, 0.03125, 0.03125, -0.03125, 0.06250, 0.00000, 0.00000, 0.00000, -0.03125, -0.06250, 0.00000, 0.03125, -0.06250, -0.06250, 0.00000, 0.03125, 0.00000, -0.03125, -0.03125, 0.03125, 0.06250, 0.00000, -0.03125, 0.03125, -0.03125, -0.06250, 0.06250, -0.03125, 0.06250, 0.03125, 0.00000, 0.00000, -0.03125, 0.00000, 0.00000, 0.03125, 0.06250, 0.06250, 0.00000, -0.03125, -0.03125, 0.03125, 0.00000, 0.00000, -0.06250, -0.03125, 0.00000, 0.00000, -0.03125, 0.03125, -0.06250, 0.00000, 0.00000, 0.00000, -0.03125, 0.03125, -0.03125, 0.00000, -0.06250, 0.06250, -0.03125, -0.03125, 0.00000, -0.03125, -0.03125, 0.03125, 0.03125, 0.00000, 0.00000, 0.03125, 0.03125, 0.03125, -0.06250, 0.03125, -0.03125, -0.03125, 0.00000, 0.03125, -0.03125, 0.00000, 0.03125, 0.00000, 0.00000, -0.03125, 0.00000, -0.03125, 0.03125, 0.00000, 0.03125, -0.06250, -0.03125, 0.03125, -0.03125, 0.00000, 0.03125, -0.03125, -0.03125, 0.00000, 0.00000, 0.03125, 0.00000, -0.03125, -0.03125, 0.00000, -0.03125, 0.03125, -0.06250, 0.06250, 0.03125, -0.03125, 0.06250, 0.00000, -0.03125, 0.00000, -0.03125, 0.00000, 0.00000, -0.03125, 0.00000, 0.03125, 0.03125, 0.03125, 0.03125, 0.03125, 0.03125, 0.00000, -0.06250, 0.00000, 0.03125, 0.03125, -0.06250, 0.03125, 0.03125, 0.03125, 0.06250, 0.00000, 0.00000, 0.03125, 0.00000, 0.00000, 0.00000, 0.00000, -0.03125, 0.06250, 0.06250, 0.06250, 0.00000, -0.06250, 0.09375, -0.03125, 0.03125, 0.00000, 0.00000, -0.03125, 0.03125, 0.00000, -0.03125, 0.06250, -0.09375, 0.00000, -0.03125, 0.00000, 0.03125, -0.03125, 0.00000, 0.00000, 0.00000, 0.03125, 0.00000, 0.03125, 0.03125, 0.06250, -0.03125, -0.03125, 0.03125, 0.00000, 0.00000, 0.03125, 0.00000, 0.03125, 0.00000, 0.06250, 0.00000, -0.03125, 0.00000, -0.03125, 0.00000, 0.00000, -0.03125, 0.00000, -0.03125, 0.00000, 0.00000, 0.03125, 0.00000, -0.03125, -0.03125, 0.00000, -0.06250, 0.03125, 0.03125, 0.06250, 0.00000, 0.00000, 0.06250, 0.03125, -0.03125, -0.03125, 0.00000, 0.00000, -0.03125, -0.03125, 0.00000, -0.03125, -0.03125, 0.03125, -0.06250, -0.03125, 0.00000, 0.03125, -0.03125, -0.03125, -0.06250, 0.03125, -0.03125, 0.00000, -0.03125, 0.00000, 0.03125, 0.06250, 0.00000, 0.00000, 0.00000, 0.00000, 0.00000, -0.03125, -0.03125, 0.00000, -0.03125, 0.00000, 0.00000, -0.03125, -0.03125, 0.03125, -0.03125, 0.00000, 0.03125, 0.03125, 0.00000, 0.00000, -0.03125, 0.00000, -0.03125, 0.03125, -0.06250, 0.06250, 0.00000, 0.00000, 0.00000, 0.00000, 0.00000, 0.06250, -0.06250, -0.06250, 0.03125, 0.06250, -0.03125, 0.03125, 0.03125, -0.03125, -0.06250, 0.03125, 0.03125, 0.00000, 0.00000, 0.03125, 0.00000, 0.06250, 0.03125, -0.03125, 0.00000, 0.00000, 0.00000, 0.03125, 0.00000, 0.00000, 0.03125, -0.03125, -0.06250, 0.03125, -0.06250, 0.03125, 0.06250, 0.00000, 0.00000, -0.03125, 0.06250, -0.06250, 0.03125, 0.00000, 0.00000, 0.00000, 0.09375, 0.03125, 0.03125, -0.03125, 0.03125, 0.00000, 0.00000, 0.00000, -0.06250, -0.03125, 0.03125, 0.00000, -0.03125, 0.03125, 0.00000, 0.03125, 0.03125, 0.03125, -0.06250, 0.03125, 0.06250, 0.03125, 0.06250, 0.06250, -0.03125, 0.00000, 0.00000, -0.03125, -0.03125, -0.03125, 0.00000, -0.03125, -0.06250, -0.06250, -0.06250, -0.06250, 0.03125, 0.06250, 0.06250, 0.06250, 0.03125, -0.03125, 0.00000, -0.03125, 0.00000, 0.03125, -0.03125, 0.03125, -0.06250, 0.06250, 0.03125, 0.00000, 0.06250, 0.03125, 0.06250, -0.03125, 0.00000, 0.00000, 0.06250, 0.00000, 0.09375, 0.00000, 0.00000, 0.03125, -0.03125, 0.00000, 0.00000, 0.03125, 0.03125, 0.03125, -0.03125, 0.00000, 0.03125, 0.00000, -0.03125, 0.00000, 0.03125, 0.00000, 0.00000, 0.00000, -0.03125, -0.03125, -0.06250, 0.00000, 0.00000, -0.03125, 0.06250, -0.06250, 0.03125, 0.03125, 0.03125, 0.06250, -0.06250, 0.03125, 0.00000, 0.00000, 0.00000, -0.03125, 0.03125, -0.03125, 0.03125, 0.00000, 0.06250, -0.06250, 0.00000, -0.03125, 0.00000, 0.06250, 0.06250, 0.00000, 0.03125, 0.00000, 0.00000, -0.03125, 0.00000, 0.03125, 0.03125, 0.00000, 0.00000, 0.00000, 0.03125, 0.06250, 0.00000, -0.06250, -0.06250, 0.00000, -0.03125, -0.03125, 0.03125, 0.03125, -0.06250, -0.03125, -0.03125, 0.00000, -0.06250, -0.06250, 0.03125, 0.00000, 0.06250, 0.00000, -0.06250, -0.03125, 0.03125, -0.06250, -0.03125, -0.03125, 0.00000, 0.06250, 0.00000, 0.00000, 0.00000, 0.03125, 0.06250, 0.00000, 0.00000, -0.06250, -0.03125, 0.00000, 0.00000, -0.06250, 0.00000, 0.03125, -0.03125, 0.03125, 0.03125, -0.03125, -0.03125, 0.00000, 0.00000, 0.00000, -0.03125, -0.06250, 0.00000, 0.00000, 0.06250, 0.06250, -0.03125, -0.03125, 0.00000, 0.03125, -0.06250, 0.06250, -0.03125, 0.00000, 0.00000, 0.03125, -0.03125, 0.06250, 0.00000, 0.00000, 0.03125, 0.00000, -0.03125, 0.00000, 0.00000, -0.03125, 0.03125, 0.09375, 0.00000, -0.06250, 0.00000, 0.06250, 0.00000, 0.03125, -0.03125, 0.03125, 0.00000, 0.06250, 0.03125, 0.00000, -0.03125, 0.03125, -0.03125, 0.00000, 0.03125, 0.00000, 0.06250, 0.03125, 0.03125, 0.00000, -0.09375, 0.00000, -0.03125, 0.03125, 0.00000, -0.03125, 0.06250, 0.03125, -0.03125, 0.00000, -0.03125, 0.00000, 0.06250, 0.09375, -0.06250, -0.03125, -0.03125, 0.09375, 0.00000, -0.03125, -0.03125, 0.06250, 0.03125, -0.03125, -0.06250, 0.06250, 0.06250, 0.00000, -0.03125, 0.03125, 0.03125, 0.06250, 0.03125, 0.00000, -0.03125, -0.06250, 0.09375, -0.03125, 0.00000, 0.06250, -0.03125, 0.03125, 0.09375, 0.00000, 0.06250, 0.06250, -0.03125, 0.06250, 0.03125, 0.03125, 0.03125, 0.00000, -0.03125, -0.03125, 0.00000, 0.03125, 0.00000, 0.06250, 0.09375, 0.06250, 0.03125, 0.00000, 0.00000, 0.03125, 0.03125, 0.00000, 0.00000, 0.03125, 0.06250, -0.06250, -0.03125, 0.00000, 0.00000, 0.03125, -0.03125, -0.03125, 0.06250, 0.00000, -0.06250, 0.00000, -0.03125, -0.06250, 0.00000, -0.06250, 0.03125, 0.03125, 0.03125, 0.00000, 0.00000, 0.03125, 0.06250, 0.03125, 0.03125, -0.03125, 0.00000, 0.00000, 0.03125, -0.03125, -0.06250, 0.03125, 0.00000, 0.03125, 0.00000, 0.03125, 0.00000, -0.06250, 0.03125, -0.03125, 0.03125, -0.06250, 0.03125, 0.09375, 0.03125, 0.00000, 0.00000, 0.00000, 0.00000, 0.03125, -0.03125, -0.03125, -0.03125, 0.00000, 0.00000, 0.00000, 0.00000, 0.03125, -0.06250, 0.00000, 0.00000, 0.00000, 0.03125, -0.06250, 0.00000, 0.00000, -0.03125, -0.06250, 0.06250, 0.03125, 0.06250, 0.09375, 0.00000, 0.00000, -0.03125, 0.00000, 0.12500, 0.00000, -0.03125, -0.03125, 0.00000, 0.00000, -0.03125, 0.09375, 0.06250, -0.06250, 0.03125, 0.00000, 0.00000, 0.03125, -0.03125, 0.00000, 0.06250, -0.03125, 0.00000, -0.03125, 0.03125, 0.03125, 0.00000, 0.00000, 0.00000, 0.00000, -0.03125, 0.00000, 0.06250, 0.00000, 0.06250, 0.00000, -0.03125, -0.03125, -0.06250, -0.09375, 0.00000, 0.00000, -0.03125, 0.00000, 0.00000, 0.03125, 0.03125, 0.06250, 0.03125, 0.03125, 0.03125, 0.06250, -0.03125, 0.03125, -0.03125, -0.06250, -0.06250, -0.03125, 0.03125, -0.09375, 0.09375, -0.03125, 0.00000, 0.00000, 0.03125, 0.00000, -0.06250, 0.00000, 0.03125, 0.09375, -0.03125, 0.00000, 0.03125, -0.06250, -0.03125, 0.09375, 0.00000, 0.00000, 0.06250, -0.06250, 0.06250, -0.03125, 0.03125, 0.03125, 0.06250, 0.03125, -0.06250, -0.06250, -0.03125, 0.00000, -0.03125, 0.03125, 0.09375, -0.03125, 0.00000, -0.03125, 0.03125, 0.00000, 0.00000, -0.03125, 0.00000, 0.03125, 0.06250, -0.06250, 0.03125, 0.00000, 0.03125, -0.06250, -0.03125, 0.06250, -0.03125, -0.06250, 0.00000, 0.03125, 0.00000, 0.09375, -0.06250, 0.00000, 0.00000, 0.03125, 0.06250, 0.00000, 0.00000, -0.03125, 0.03125, 0.00000, 0.09375, 0.03125, -0.03125, 0.00000, 0.00000, 0.03125, 0.00000, 0.06250, 0.03125, 0.06250, -0.03125, -0.03125, 0.03125, 0.00000, -0.03125, 0.00000, 0.06250, -0.03125, 0.00000, 0.06250, 0.00000, 0.06250, -0.03125, 0.03125, 0.00000, -0.06250, -0.03125, 0.00000, 0.03125, -0.03125, -0.03125, 0.00000, -0.06250, 0.03125, -0.03125, -0.03125, 0.03125, 0.00000, 0.03125, 0.00000, 0.03125, -0.03125, -0.03125, 0.03125, -0.03125, 0.00000, 0.03125, -0.03125, -0.03125, -0.03125, -0.03125, 0.03125, -0.06250, 0.00000, 0.03125, 0.06250, -0.06250, -0.03125, -0.03125, -0.06250, 0.03125, 0.00000, 0.03125, 0.00000, 0.00000, 0.06250, 0.06250, 0.00000, 0.00000, 0.03125, 0.00000, -0.03125, -0.06250, -0.03125, 0.00000, 0.03125, 0.03125, -0.03125, 0.06250, 0.03125, 0.06250, -0.03125, 0.06250, -0.06250, 0.06250, 0.00000, 0.06250, 0.00000, -0.09375, 0.00000, 0.06250, -0.06250, 0.03125, 0.03125, -0.06250, -0.03125, -0.06250, 0.06250, 0.06250, -0.06250, 0.06250, 0.09375, 0.00000, 0.00000, 0.09375, 0.06250, 0.00000, 0.06250, -0.06250, 0.00000, -0.03125, 0.06250, 0.09375, 0.06250, 0.00000, -0.06250, 0.00000, 0.06250, -0.06250, -0.03125, 0.00000, -0.06250, -0.03125, -0.09375, 0.03125, 0.00000, 0.03125, 0.09375, 0.03125, 0.06250, 0.03125, 0.06250, 0.00000, 0.03125, 0.03125, -0.03125, 0.03125, 0.00000, -0.06250, 0.06250, -0.03125, 0.06250, 0.03125, 0.00000, 0.03125, 0.06250, 0.03125, -0.03125, -0.06250, -0.03125, 0.00000, 0.03125, -0.06250, 0.00000, 0.00000, -0.03125, 0.00000, 0.03125, 0.03125, 0.06250, 0.00000, -0.03125, 0.06250, 0.00000, 0.03125, 0.03125, 0.00000, 0.00000, 0.06250, 0.06250, -0.03125, 0.00000, 0.00000, 0.06250, 0.00000, 0.03125, 0.00000, -0.03125, 0.03125, 0.03125, 0.03125, -0.03125, -0.09375, 0.03125, 0.00000, 0.03125, 0.03125, 0.00000, 0.06250, -0.09375, 0.00000, 0.06250, 0.03125, 0.03125, 0.00000, 0.06250, 0.00000, 0.00000, -0.03125, 0.03125, 0.00000, 0.06250, -0.06250, 0.00000, -0.06250, 0.09375, 0.03125, 0.03125, 0.00000, 0.00000, 0.03125, 0.00000, -0.09375, -0.03125, 0.00000, 0.00000, -0.03125, 0.00000, -0.03125, -0.06250, 0.03125, 0.03125, 0.03125, 0.00000, 0.03125, -0.03125, -0.03125, 0.09375, 0.09375, -0.03125, 0.00000, 0.03125, 0.00000, -0.03125, -0.03125, 0.03125, -0.03125, 0.00000, 0.09375, 0.03125, -0.06250, 0.00000, 0.03125, 0.03125, 0.00000, 0.06250, -0.06250, -0.03125, 0.06250, -0.03125, 0.00000, 0.00000, 0.03125, -0.06250, 0.00000, 0.03125, 0.00000, 0.00000, 0.06250, 0.00000, -0.06250, -0.06250, 0.00000, 0.03125, 0.00000, 0.03125, -0.03125, -0.03125, 0.03125, -0.03125, 0.06250, -0.03125, 0.03125, 0.03125, 0.03125, -0.03125, 0.03125, 0.00000, 0.03125, -0.03125, -0.06250, -0.03125, 0.03125, 0.00000, -0.03125, -0.03125, -0.03125, 0.06250, 0.03125, -0.06250, 0.06250, -0.03125, -0.03125, -0.03125, 0.03125, 0.00000, 0.03125, -0.03125, -0.03125, -0.03125, -0.03125, 0.00000, 0.00000, -0.03125, 0.06250, 0.03125, 0.06250, 0.00000, 0.03125, 0.03125, 0.03125, 0.00000, 0.03125, -0.03125, 0.03125, -0.06250, 0.03125, -0.03125, 0.03125, 0.00000, 0.06250, 0.00000, 0.03125, 0.06250, -0.03125, 0.00000, 0.00000, 0.03125, -0.03125, 0.03125, 0.00000, -0.06250, 0.03125, 0.03125, -0.03125, 0.03125, 0.03125, -0.03125, 0.00000, 0.00000, -0.06250, 0.00000, -0.03125, 0.03125, -0.06250, 0.03125, 0.03125, -0.03125, 0.00000, 0.00000, -0.06250, 0.00000, 0.03125, -0.03125, -0.03125, -0.03125, -0.03125, 0.03125, 0.00000, 0.00000, 0.06250, 0.03125, -0.06250, -0.03125, -0.06250, 0.06250, 0.00000, 0.03125, -0.03125, 0.03125, 0.03125, 0.00000, 0.00000, -0.06250, 0.00000, -0.03125, 0.06250, 0.06250, 0.06250, -0.03125, 0.00000, -0.06250, -0.03125, -0.03125, -0.03125, -0.03125, 0.09375, -0.09375, 0.00000, 0.06250, -0.06250, 0.06250, 0.00000, -0.06250, 0.00000, 0.03125, -0.03125, 0.09375, 0.03125, 0.03125, 0.03125, -0.06250, 0.03125, -0.03125, 0.09375, 0.00000, 0.09375, 0.00000, 0.00000, 0.03125, 0.03125, -0.06250, 0.00000, 0.03125, -0.03125, -0.03125, -0.06250, 0.03125, -0.06250, -0.03125, 0.03125, 0.09375, -0.06250, 0.06250, 0.06250, -0.03125, 0.00000, 0.00000, -0.06250, 0.00000, 0.03125, 0.06250, 0.06250, 0.00000, -0.03125, 0.00000, 0.00000, -0.03125, -0.03125, 0.09375, -0.03125, -0.03125, 0.03125, 0.00000, -0.03125, -0.03125, 0.00000, 0.03125, 0.00000, 0.03125, 0.06250, -0.06250, 0.03125, 0.03125, 0.03125, 0.03125, 0.00000, 0.00000, 0.03125, 0.03125, 0.03125, 0.03125, 0.00000, -0.03125, 0.03125, -0.06250, 0.00000, 0.03125, 0.09375, 0.00000, 0.00000, -0.06250, -0.06250, -0.03125, -0.03125, -0.06250, -0.03125, 0.06250, 0.03125, -0.03125, -0.09375, -0.06250, -0.03125, 0.00000, 0.00000, 0.06250, 0.00000, 0.00000, 0.00000, 0.03125, -0.03125, 0.03125, 0.00000, -0.03125, -0.03125, 0.00000, 0.06250, 0.03125, 0.00000, -0.06250, -0.06250, 0.03125, 0.03125, -0.03125, -0.09375, 0.00000, 0.03125, -0.03125, 0.00000, 0.00000, -0.03125, -0.03125, 0.06250, 0.00000, 0.00000, 0.06250, 0.03125, 0.00000, 0.00000, 0.00000, -0.03125, 0.06250, -0.03125, 0.03125, -0.03125, 0.00000, -0.06250, -0.03125, 0.00000, 0.03125, 0.00000, 0.06250, -0.03125, 0.06250, 0.00000, -0.03125, -0.03125, 0.03125, 0.00000, 0.03125, 0.03125, 0.06250, -0.03125, 0.06250, 0.00000, 0.03125, 0.00000, 0.00000, -0.03125, -0.03125, -0.03125, 0.09375, 0.06250, 0.03125, 0.03125, 0.09375, 0.03125, 0.00000, 0.00000, -0.03125, 0.00000, 0.06250, 0.03125, -0.03125, 0.06250, -0.03125, 0.00000, 0.00000, 0.06250, -0.03125, 0.03125, -0.03125, -0.03125, -0.06250, 0.00000, 0.03125, -0.03125, 0.06250, 0.00000, -0.03125, 0.00000, -0.03125, 0.03125, 0.03125, -0.03125, -0.03125, 0.00000, 0.00000, 0.03125, -0.03125, 0.03125, -0.03125, 0.06250, -0.03125, 0.03125, 0.00000, 0.03125, 0.03125, 0.00000, -0.06250, 0.03125, 0.00000, 0.00000, 0.00000, -0.06250, -0.06250, -0.06250, 0.03125, 0.00000, -0.03125, -0.03125, -0.06250, -0.03125, 0.03125, -0.03125, 0.03125, 0.06250, 0.06250, -0.06250, -0.06250, 0.03125, -0.03125, -0.03125, 0.03125, 0.03125, -0.03125, 0.06250, 0.03125, 0.03125, 0.03125, 0.00000, 0.00000, -0.06250, -0.03125, -0.03125, 0.00000, 0.00000, 0.00000, 0.00000, 0.03125, 0.00000, 0.03125, -0.03125, 0.06250, 0.03125, -0.03125, 0.03125, 0.03125, 0.06250, 0.00000, 0.03125, -0.03125, 0.03125, 0.00000, 0.03125, 0.06250, -0.06250, 0.06250, -0.03125, 0.03125, 0.00000, -0.03125, 0.00000, 0.00000, -0.03125, -0.03125, 0.06250, 0.00000, -0.09375, 0.03125, 0.03125, 0.03125, 0.06250, -0.03125, -0.03125, 0.03125, 0.03125, 0.03125, -0.03125, 0.03125, 0.00000, -0.03125, 0.03125, 0.00000, -0.03125, 0.00000, -0.03125, 0.03125, -0.06250, 0.03125, -0.06250, 0.03125, 0.06250, 0.03125, 0.03125, 0.09375, 0.09375, 0.09375, 0.00000, 0.00000, 0.00000, -0.06250, -0.03125, 0.03125, 0.00000, 0.06250, 0.06250, -0.03125, -0.03125, 0.03125, -0.03125, 0.06250, 0.00000, 0.03125, 0.00000, 0.06250, 0.00000, 0.00000, -0.03125, 0.00000, -0.03125, 0.03125, 0.00000, 0.00000, 0.03125, 0.03125, 0.00000, 0.06250, -0.06250, -0.03125, 0.03125, 0.00000, -0.03125, 0.03125, 0.03125, -0.03125, 0.00000, 0.06250, -0.06250, 0.00000, 0.00000, 0.06250, 0.00000, 0.03125, 0.03125, 0.03125, -0.03125, 0.03125, 0.03125, 0.06250, -0.03125, 0.06250, 0.00000, 0.00000, -0.03125, 0.03125, 0.06250, 0.06250, 0.00000, -0.03125, 0.06250, 0.03125, 0.00000, -0.03125, 0.06250, 0.00000, -0.03125, 0.00000, 0.00000, 0.03125, -0.03125, 0.03125, 0.03125, -0.06250, -0.06250, 0.06250, -0.03125, -0.06250, -0.03125, -0.03125, -0.03125, 0.03125, -0.06250, 0.00000, 0.03125, 0.00000, 0.00000, -0.03125, -0.06250, -0.03125, 0.00000, 0.00000, -0.03125, 0.00000, 0.03125, 0.06250, 0.00000, -0.03125, 0.03125, -0.03125, -0.03125, 0.00000, 0.03125, 0.03125, 0.00000, -0.03125, -0.03125, -0.06250, 0.00000, 0.00000, -0.03125, 0.06250, 0.06250, 0.03125, -0.03125, -0.06250, 0.03125, -0.03125, 0.00000, 0.06250, -0.03125, 0.03125, -0.03125, 0.06250, -0.03125, -0.03125, -0.03125, 0.03125, 0.03125, -0.03125, -0.06250, 0.00000, 0.03125, 0.00000, 0.03125, 0.00000, 0.03125, 0.00000, 0.00000, -0.06250, 0.00000, -0.03125, 0.00000, 0.03125, 0.06250, -0.03125, 0.00000, 0.03125, 0.00000, 0.06250, -0.03125, 0.00000, 0.03125, 0.03125, 0.03125, 0.03125, 0.06250, 0.00000, -0.03125, 0.00000, 0.06250, 0.00000, 0.00000, 0.03125, 0.03125, 0.00000, 0.00000, 0.03125, 0.00000, 0.03125, -0.03125, -0.03125, 0.03125, 0.06250, 0.03125, -0.03125, 0.03125, 0.03125, 0.00000, -0.03125, 0.00000, 0.03125, -0.06250, -0.03125, 0.06250, -0.03125, 0.00000, 0.00000, 0.00000, 0.00000, 0.00000, 0.03125, 0.00000, 0.03125, 0.03125, 0.03125, -0.03125, 0.00000, -0.03125, 0.03125, 0.00000, 0.00000, -0.06250, -0.06250, 0.00000, 0.06250, -0.03125, 0.03125, -0.03125, 0.00000, 0.03125, 0.06250, 0.00000, 0.00000, -0.06250, 0.03125, 0.00000, 0.03125, 0.03125, 0.03125, 0.06250, -0.03125, 0.03125, -0.03125, 0.00000, 0.00000, 0.00000, 0.03125, 0.06250, -0.03125, 0.06250, -0.06250, 0.03125, 0.03125, 0.00000, 0.00000, 0.00000, 0.09375, 0.03125, 0.03125, -0.06250, 0.00000, -0.06250, -0.06250, -0.03125, 0.03125, -0.03125, 0.00000, 0.06250, 0.00000, -0.03125, 0.00000, 0.09375, 0.06250, 0.00000, -0.06250, 0.00000, 0.00000, 0.03125, 0.03125, 0.00000, 0.00000, 0.03125, 0.00000, -0.03125, 0.00000, 0.00000, 0.03125, 0.00000, 0.00000, -0.03125, -0.03125, 0.03125, 0.00000, 0.00000, 0.06250, 0.00000, 0.09375, -0.03125, 0.03125, -0.09375, 0.00000, -0.03125, 0.00000, -0.03125, -0.06250, 0.03125, -0.06250, 0.03125, 0.03125, 0.03125, 0.03125, 0.06250, -0.03125, -0.03125, 0.06250, 0.03125, -0.06250, -0.03125, 0.06250, 0.00000, 0.03125, -0.03125, 0.06250, -0.03125, 0.03125, 0.03125, 0.00000, 0.03125, -0.06250, 0.03125, 0.00000, 0.00000, 0.06250, 0.00000, 0.03125, 0.03125, 0.06250, 0.09375, -0.03125, 0.06250, 0.00000, -0.03125, 0.03125, 0.00000, 0.00000, -0.03125, 0.03125, -0.06250, -0.03125, 0.03125, 0.00000, -0.06250, 0.00000, 0.03125, 0.03125, 0.03125, 0.00000, -0.03125, -0.03125, 0.06250, 0.03125, 0.00000, -0.03125, 0.09375, 0.03125, 0.03125, 0.00000, -0.06250, 0.03125, -0.06250, 0.00000, 0.00000, 0.03125, 0.06250, 0.00000, -0.03125, 0.03125, -0.03125, 0.03125, -0.03125, -0.03125, -0.03125, -0.06250, -0.06250, 0.03125, 0.00000, 0.03125, -0.06250, 0.03125, -0.03125, 0.00000, -0.03125, -0.03125, -0.06250, 0.03125, 0.06250, 0.03125, 0.00000, 0.06250, -0.03125, -0.03125, 0.06250, 0.00000, 0.03125, -0.06250, -0.03125, 0.00000, -0.03125, 0.06250, 0.06250, 0.03125, 0.03125, 0.00000, -0.03125, 0.03125, 0.00000, -0.03125, 0.03125, 0.03125, -0.03125, -0.03125, -0.03125, -0.03125, 0.03125, -0.06250, -0.03125, -0.03125, 0.06250, 0.03125, -0.03125, -0.03125, -0.06250, 0.03125, 0.00000, -0.03125, 0.00000, 0.03125, 0.00000, 0.00000, -0.06250, 0.03125, 0.03125, 0.03125, 0.00000, 0.00000, -0.06250, 0.03125, 0.06250, 0.00000, 0.00000, -0.06250, -0.06250, 0.00000, 0.00000, -0.03125, 0.03125, 0.03125, -0.03125, -0.03125, -0.03125, 0.03125, 0.06250, 0.03125, 0.03125, 0.03125, 0.06250, 0.03125, 0.00000, 0.06250, 0.00000, -0.06250, -0.03125, -0.03125, 0.00000, -0.03125, 0.06250, -0.03125, 0.00000, -0.09375, 0.00000, 0.03125, 0.03125, 0.06250, 0.00000, 0.00000, 0.03125, 0.06250, -0.06250, 0.03125, -0.03125, -0.03125, 0.03125, 0.00000, 0.00000, 0.03125, 0.03125, -0.03125, 0.00000, 0.03125, 0.00000, 0.06250, 0.03125, 0.00000, 0.03125, 0.00000, -0.03125, -0.03125, 0.00000, 0.00000, 0.00000, 0.03125, -0.06250, 0.00000, -0.03125, 0.00000, 0.03125, -0.03125, -0.03125, -0.03125, 0.03125, 0.03125, -0.03125, 0.06250, -0.03125, 0.00000, -0.06250, -0.06250, -0.03125, 0.06250, -0.03125, 0.00000, 0.00000, -0.06250, 0.00000, -0.03125, 0.09375, -0.03125, 0.00000, 0.03125, -0.03125, -0.03125, 0.06250, 0.00000, 0.00000, 0.06250, 0.00000, 0.00000, -0.03125, 0.00000, 0.03125, -0.03125, 0.03125, 0.00000, 0.00000, 0.00000, -0.03125, 0.03125, 0.00000, 0.03125, 0.00000, -0.03125, -0.03125, 0.00000, 0.03125, 0.06250, 0.06250, 0.03125, 0.00000, 0.00000, 0.06250, 0.00000, 0.00000, 0.00000, -0.03125, 0.03125, 0.00000, -0.03125, 0.03125, 0.06250, -0.03125, 0.03125, -0.03125, 0.03125, 0.03125, 0.03125, 0.06250, 0.03125, 0.06250, -0.03125, 0.00000, -0.03125, 0.03125, 0.00000, 0.03125, 0.00000, 0.00000, -0.03125, 0.03125, -0.03125, 0.03125, -0.03125, 0.00000, -0.06250, -0.09375, -0.03125, -0.06250, -0.03125, -0.03125, 0.09375, -0.03125, 0.00000, 0.06250, 0.06250, 0.00000, 0.00000, -0.06250, -0.03125, -0.03125, 0.00000, 0.03125, -0.03125, -0.06250, 0.03125, -0.06250, 0.00000, 0.03125, 0.03125, 0.00000, 0.06250, 0.03125, 0.00000, 0.00000, 0.03125, 0.03125, -0.03125, 0.03125, -0.03125, 0.00000, 0.03125, -0.03125, -0.06250, 0.03125, -0.03125, -0.09375, -0.06250, -0.03125, 0.00000, 0.00000, 0.00000, 0.00000, 0.00000, 0.03125, -0.03125, -0.06250, -0.03125, 0.00000, 0.06250, 0.00000, 0.03125, -0.06250, 0.00000, 0.00000, 0.03125, 0.06250, 0.00000, 0.03125, 0.00000, 0.00000, 0.03125, 0.06250, 0.06250, 0.00000, 0.06250, 0.03125, 0.00000, 0.03125, 0.06250, -0.06250, -0.03125, 0.03125, 0.03125, 0.06250, -0.06250, 0.00000, 0.06250, 0.03125, 0.00000, 0.00000, 0.03125, 0.03125, -0.06250, 0.00000, -0.03125, 0.00000, 0.00000, 0.03125, 0.00000, 0.06250, -0.03125, 0.00000, -0.03125, 0.00000, 0.03125, 0.06250, 0.03125, 0.03125, 0.03125, 0.00000, 0.03125, 0.00000, 0.03125, 0.00000, 0.00000, 0.00000, 0.03125, 0.00000, 0.00000, 0.03125, 0.03125, 0.06250, 0.00000, 0.03125, -0.03125, -0.06250, 0.00000, -0.03125, -0.03125, 0.00000, 0.00000, 0.03125, 0.06250, 0.03125, 0.03125, 0.00000, 0.03125, 0.00000, 0.06250, 0.00000, 0.03125, -0.03125, -0.03125, 0.00000, 0.00000, -0.03125, -0.03125, 0.06250, 0.03125, -0.03125, 0.03125, 0.03125, 0.03125, -0.06250, -0.06250, -0.03125, 0.03125, -0.03125, 0.03125, 0.03125, 0.03125, 0.00000, 0.03125, 0.09375, 0.03125, 0.03125, -0.03125, 0.06250, 0.06250, 0.03125, 0.03125, 0.03125, 0.00000, 0.00000, 0.03125, -0.03125, -0.09375, 0.03125, 0.03125, 0.03125, -0.03125, 0.03125, 0.00000, -0.03125, 0.00000, 0.03125, -0.03125, 0.03125, -0.03125, 0.03125, -0.03125, 0.03125, 0.03125, -0.03125, -0.03125, 0.06250, 0.06250, 0.03125, -0.03125, 0.06250, -0.03125, -0.06250, 0.03125, -0.03125, -0.03125, 0.00000, -0.03125, 0.06250, -0.03125, -0.03125, 0.06250, 0.00000, -0.03125, -0.03125, 0.03125, -0.03125, -0.03125, -0.03125, -0.03125, -0.03125, 0.06250, 0.00000, -0.03125, 0.06250, 0.06250, 0.00000, -0.03125, 0.03125, -0.03125, 0.03125, 0.03125, -0.03125, 0.03125, 0.06250, 0.00000, 0.00000, 0.03125, -0.06250, 0.03125, 0.03125, -0.03125, 0.00000, 0.00000, 0.06250, -0.03125, 0.09375, -0.03125, -0.03125, 0.03125, 0.06250, 0.06250, 0.00000, 0.03125, 0.00000, -0.06250, 0.00000, 0.00000, 0.00000, 0.00000, 0.00000, 0.03125, 0.00000, 0.00000, 0.00000, 0.03125, 0.03125, 0.00000, -0.03125, -0.03125, -0.03125, 0.00000, -0.06250, 0.03125, 0.00000, -0.03125, -0.06250, 0.03125, -0.03125, 0.03125, 0.03125, 0.03125, -0.06250, 0.06250, 0.03125, -0.03125, -0.03125, 0.03125, 0.03125, -0.06250, -0.03125, -0.06250, 0.06250, -0.06250, -0.03125, 0.00000, 0.00000, 0.03125, 0.00000, -0.06250, -0.06250, -0.06250, -0.03125, 0.00000, 0.00000, 0.00000, 0.03125, 0.03125, 0.00000, -0.06250, -0.03125, -0.03125, 0.06250, 0.00000, 0.03125, 0.06250, -0.03125, 0.00000, 0.03125, -0.03125, -0.06250, 0.00000, 0.00000, -0.06250, 0.03125, -0.03125, 0.00000, 0.00000, 0.00000, 0.00000, 0.00000, 0.03125, 0.00000, 0.00000, 0.00000, -0.03125, 0.00000, 0.00000, -0.03125, -0.03125, 0.03125, 0.06250, 0.00000, 0.06250, -0.06250, 0.00000, -0.03125, 0.00000, 0.00000, 0.03125, 0.06250, 0.03125, -0.06250, -0.06250, 0.03125, -0.06250, 0.03125, 0.00000, 0.00000, 0.06250, 0.00000, 0.00000, 0.03125, 0.00000, -0.06250, 0.03125, 0.00000, 0.06250, 0.03125, -0.03125, -0.06250, -0.03125, 0.00000, -0.03125, 0.00000, 0.03125, 0.03125, -0.03125, -0.06250, -0.06250, -0.06250, 0.00000, 0.00000, -0.03125, 0.00000, 0.03125, -0.06250, -0.06250, 0.00000, 0.00000, 0.03125, -0.03125, 0.00000, -0.09375, 0.00000, -0.06250, -0.06250, 0.00000, -0.06250, -0.03125, 0.03125, -0.03125, -0.03125, 0.00000, -0.03125, 0.00000, -0.03125, 0.00000, -0.06250, -0.03125, 0.00000, -0.03125, 0.03125, 0.00000, 0.00000, -0.03125, 0.00000, 0.03125, 0.00000, -0.06250, 0.00000, 0.00000, 0.00000, 0.06250, -0.03125, 0.00000, 0.00000, 0.00000, -0.03125, -0.03125, 0.00000, 0.00000, 0.00000, -0.03125, -0.06250, 0.03125, -0.06250, 0.00000, -0.03125, 0.00000, -0.03125, -0.03125, 0.00000, -0.06250, -0.03125, -0.03125, -0.03125, -0.03125, 0.03125, 0.00000, -0.06250, -0.03125, -0.03125, -0.03125, 0.00000, -0.03125, 0.00000, 0.00000, -0.03125, -0.06250, 0.03125, 0.00000, 0.00000, 0.03125, -0.06250, 0.03125, -0.03125, -0.06250, 0.00000, -0.03125, 0.00000, 0.00000, 0.03125, -0.03125, 0.00000, 0.03125, 0.00000, 0.00000, 0.00000, -0.03125, 0.00000, -0.03125, -0.03125, -0.03125, 0.00000, -0.03125, 0.00000, 0.00000, 0.00000, 0.00000, -0.03125, 0.03125, 0.03125, -0.06250, 0.06250, -0.03125, -0.03125, 0.00000, 0.03125, -0.03125, 0.00000, 0.03125, 0.00000, -0.03125, -0.03125, -0.03125, -0.03125, -0.03125, 0.00000, 0.00000, 0.00000, 0.06250, 0.00000, 0.00000, 0.03125, 0.03125, 0.00000, 0.00000, -0.06250, 0.03125, 0.00000, 0.00000, -0.09375, 0.03125, -0.03125, 0.00000, 0.03125, 0.06250, 0.00000, -0.03125, -0.03125, -0.06250, -0.06250, 0.00000, 0.00000, -0.06250, 0.00000, 0.00000, -0.03125, 0.03125, -0.03125, -0.03125, 0.00000, 0.06250, 0.00000, 0.03125, 0.00000, -0.06250, 0.06250, -0.03125, 0.03125, 0.00000, 0.03125, -0.03125, 0.03125, 0.03125, 0.03125, -0.06250, -0.06250, -0.03125, 0.00000, 0.00000, 0.00000, 0.06250, -0.06250, -0.03125, 0.00000, -0.06250, 0.03125, -0.09375, 0.00000, 0.00000, -0.03125, 0.00000, -0.03125, -0.03125, 0.00000, 0.00000, 0.03125, 0.03125, 0.03125, -0.06250, -0.06250, -0.03125, 0.00000, -0.03125, -0.03125, -0.06250, 0.03125, 0.03125, 0.00000, -0.06250, -0.03125, 0.00000, 0.00000, 0.00000, -0.03125, -0.03125, 0.00000, 0.00000, -0.03125, 0.06250, -0.06250, -0.03125, 0.00000, 0.00000, 0.03125, 0.03125, 0.00000, -0.03125, -0.06250, 0.00000, -0.03125, -0.06250, -0.03125, 0.03125, 0.03125, 0.03125, 0.03125, 0.00000, 0.06250, 0.00000, 0.00000, 0.00000, 0.00000, 0.00000, -0.06250, 0.03125, 0.03125, 0.00000, 0.00000, -0.03125, -0.03125, 0.00000, -0.03125, -0.09375, -0.03125, 0.00000, -0.06250, 0.00000, 0.03125, -0.03125, -0.03125, 0.03125, 0.06250, 0.00000, 0.00000, 0.00000, 0.06250, 0.00000, 0.03125, -0.06250, -0.03125, -0.03125, 0.00000, -0.03125, -0.03125, -0.03125, 0.00000, -0.06250, 0.00000, 0.06250, -0.09375, -0.03125, 0.03125, 0.06250, 0.03125, 0.03125, 0.06250, -0.06250, -0.03125, 0.06250, -0.03125, 0.03125, 0.00000, 0.00000, 0.00000, -0.06250, -0.03125, 0.03125, 0.03125, -0.06250, 0.03125, -0.06250, 0.00000, -0.06250, -0.03125, 0.03125, -0.03125, -0.09375, -0.03125, 0.00000, 0.00000, 0.03125, 0.03125, 0.03125, 0.00000, -0.03125, -0.03125, 0.00000, 0.03125, -0.06250, 0.00000, -0.03125, 0.03125, -0.03125, 0.06250, 0.00000, 0.06250, 0.03125, 0.03125, 0.00000, 0.03125, 0.00000, -0.03125, -0.09375, -0.03125, 0.03125, 0.03125, -0.06250, -0.03125, 0.03125, 0.03125, -0.03125, 0.00000, 0.03125, 0.03125, 0.03125, -0.03125, -0.03125, 0.06250, 0.00000, 0.03125, 0.00000, 0.03125, 0.00000, -0.03125, -0.03125, -0.03125, 0.03125, -0.06250, 0.00000, 0.06250, 0.03125, -0.03125, -0.03125, 0.00000, 0.00000, 0.03125, -0.03125, 0.03125, -0.03125, 0.00000, 0.03125, -0.03125, 0.03125, -0.06250, 0.03125, -0.09375, 0.03125, 0.00000, 0.03125, -0.09375, -0.03125, 0.00000, -0.03125, -0.03125, 0.00000, -0.03125, 0.06250, 0.00000, -0.03125, 0.03125, -0.03125, -0.06250, 0.06250, -0.03125, -0.06250, -0.06250, 0.00000, 0.03125, 0.00000, 0.00000, 0.03125, -0.03125, 0.03125, 0.00000, 0.00000, 0.00000, 0.06250, 0.03125, -0.03125, -0.03125, 0.06250, -0.03125, 0.03125, 0.03125, 0.03125, 0.06250, -0.06250, 0.03125, 0.03125, -0.03125, -0.09375, 0.03125, -0.03125, 0.03125, -0.03125, -0.03125, -0.03125, -0.03125, -0.03125, -0.06250, 0.03125, -0.03125, 0.03125, -0.03125, 0.00000, -0.03125, 0.03125, -0.06250, 0.03125, -0.03125, 0.00000, 0.03125, -0.03125, 0.00000, -0.03125, 0.00000, 0.06250, 0.00000, 0.03125, 0.00000, 0.06250, 0.06250, 0.06250, 0.03125, -0.06250, 0.00000, 0.06250, 0.06250, 0.03125, -0.03125, 0.03125, -0.03125, 0.00000, -0.06250, 0.00000, 0.00000, 0.00000, 0.00000, -0.09375, 0.00000, 0.00000, 0.06250, -0.03125, 0.09375, -0.06250, -0.03125, 0.03125, 0.00000, -0.03125, 0.03125, -0.03125, 0.00000, 0.00000, -0.03125, 0.06250, 0.00000, 0.03125, 0.06250, 0.00000, -0.06250, 0.00000, 0.00000, -0.03125, 0.00000, 0.00000, -0.03125, 0.00000, 0.03125, 0.09375, -0.09375, 0.00000, -0.06250, 0.03125, -0.06250, 0.03125, 0.00000, 0.00000, -0.06250, -0.06250, 0.06250, 0.03125, 0.03125, 0.00000, 0.03125, -0.03125, 0.06250, 0.03125, -0.03125, 0.12500, -0.03125, 0.03125, 0.03125, 0.03125, 0.03125, 0.03125, 0.03125, 0.06250, 0.03125, -0.03125, 0.03125, 0.00000, 0.03125, 0.06250, 0.00000, 0.00000, 0.03125, 0.00000, 0.00000, -0.03125, -0.06250, -0.06250, 0.03125, -0.06250, -0.03125, -0.03125, -0.03125, 0.06250, 0.09375, 0.06250, 0.00000, 0.09375, -0.03125, 0.00000, 0.03125, 0.00000, 0.03125, -0.03125, -0.03125, -0.06250, 0.03125, 0.03125, 0.03125, 0.00000, 0.00000, 0.03125, -0.03125, 0.00000, 0.06250, 0.03125, -0.06250, 0.09375, 0.06250, 0.06250, 0.06250, -0.06250, 0.06250, 0.00000, -0.03125, 0.03125, -0.06250, 0.06250, -0.03125, 0.06250, -0.03125, 0.06250, -0.06250, 0.06250, 0.06250, 0.06250, -0.03125, -0.03125, 0.06250, -0.03125, 0.03125, -0.03125, 0.00000, 0.03125, 0.06250, -0.03125, -0.03125, 0.00000, -0.06250, 0.00000, -0.06250, -0.06250, 0.06250, 0.03125, 0.03125, 0.03125, 0.00000, 0.06250, 0.06250, -0.06250, 0.00000, 0.00000, 0.00000, 0.00000, 0.03125, 0.00000, 0.00000, 0.03125, 0.03125, -0.03125, 0.00000, 0.00000, -0.03125, 0.03125, -0.03125, -0.03125, 0.03125, 0.03125, 0.00000, 0.03125, 0.03125, 0.06250, 0.00000, 0.00000, 0.03125, 0.00000, -0.03125, 0.03125, 0.00000, 0.00000, 0.03125, 0.00000, 0.03125, 0.00000, 0.03125, -0.03125, -0.03125, 0.00000, -0.06250, 0.03125, -0.06250, -0.06250, 0.00000, -0.03125, -0.03125, 0.03125, 0.03125, -0.03125, 0.00000, -0.03125, 0.06250, 0.03125, 0.06250, -0.06250, 0.00000, 0.03125, 0.12500, 0.03125, 0.00000, 0.06250, 0.00000, 0.00000, 0.03125, 0.03125, 0.03125, -0.06250, 0.00000, 0.00000, 0.00000, 0.00000, 0.06250, 0.00000, 0.00000, 0.03125, 0.00000, 0.00000, 0.00000, 0.00000, 0.09375, 0.06250, -0.03125, 0.00000, -0.06250, 0.06250, -0.03125, 0.00000, -0.03125, 0.03125, -0.03125, 0.00000, 0.00000, 0.03125, 0.09375, 0.00000, 0.03125, -0.03125, 0.00000, -0.06250, -0.06250, 0.00000, 0.00000, 0.00000, 0.03125, 0.03125, 0.03125, 0.00000, -0.06250, 0.03125, -0.03125, 0.03125, 0.00000, -0.03125, 0.03125, 0.00000, -0.03125, -0.06250, 0.03125, 0.03125, 0.00000, 0.00000, 0.06250, -0.03125, -0.03125, 0.03125, -0.03125, 0.03125, 0.06250, 0.03125, 0.00000, 0.00000, 0.00000, 0.00000, -0.03125, 0.00000, -0.03125, -0.03125, 0.00000, 0.03125, -0.03125, -0.09375, 0.00000, 0.03125, 0.00000, -0.06250, -0.06250, 0.09375, -0.06250, 0.00000, -0.03125, 0.03125, -0.03125, 0.00000, 0.00000, 0.00000, 0.03125, 0.00000, 0.06250, 0.00000, 0.00000, 0.00000, -0.03125, 0.03125, -0.06250, 0.00000, 0.00000, -0.03125, 0.00000, 0.00000, -0.03125, 0.00000, 0.03125, -0.03125, -0.06250, 0.03125, -0.03125, 0.03125, 0.06250, 0.03125, 0.06250, -0.03125, 0.00000, 0.03125, 0.00000, 0.00000, 0.00000, 0.00000, -0.06250, 0.03125, 0.00000, -0.03125, -0.03125, 0.03125, 0.03125, 0.00000, 0.03125, 0.03125, -0.06250, -0.03125, 0.00000, 0.03125, -0.03125, -0.03125, 0.06250, 0.03125, 0.00000, -0.03125, -0.03125, -0.03125, 0.00000, 0.06250, -0.03125, 0.00000, 0.03125, 0.09375, -0.03125, -0.06250, -0.03125, 0.03125, 0.06250, -0.03125, 0.03125, 0.00000, 0.03125, -0.03125, 0.00000, 0.00000, 0.00000, -0.06250, 0.06250, 0.03125, 0.00000, -0.03125, 0.00000, -0.03125, -0.03125, 0.00000, -0.06250, 0.03125, 0.00000, 0.00000, -0.06250, 0.00000, -0.03125, 0.00000, 0.00000, -0.03125, -0.03125, 0.00000, 0.03125, 0.03125, 0.00000, 0.03125, 0.00000, -0.06250, 0.03125, -0.03125, -0.03125, 0.00000, -0.03125, -0.06250, -0.03125, -0.03125, 0.06250, -0.06250, 0.03125, -0.03125, 0.03125, -0.06250, -0.06250, 0.00000, 0.00000, 0.03125, 0.03125, -0.03125, 0.06250, 0.00000, 0.03125, 0.00000, 0.00000, 0.03125, 0.03125, 0.06250, 0.03125, 0.03125, 0.06250, 0.09375, 0.00000, 0.00000, 0.00000, -0.03125, -0.09375, 0.03125, 0.06250, 0.03125, 0.00000, 0.06250, -0.06250, 0.00000, -0.03125, 0.03125, 0.03125, -0.03125, 0.03125, -0.03125, 0.00000, -0.03125, 0.00000, 0.00000, 0.06250, 0.06250, 0.03125, 0.00000, -0.03125, 0.00000, 0.06250, 0.03125, 0.03125, 0.00000, -0.06250, 0.03125, 0.06250, -0.03125, 0.00000, 0.03125, 0.00000, 0.09375, 0.00000, 0.03125, 0.00000, 0.03125, 0.03125, 0.00000, 0.00000, 0.03125, 0.00000, 0.03125, 0.03125, -0.03125, 0.00000, 0.00000, 0.00000, 0.00000, 0.00000, -0.03125, 0.03125, -0.03125, 0.06250, 0.00000, 0.03125, 0.03125, 0.06250, 0.03125, 0.06250, -0.03125, 0.03125, -0.06250, -0.03125, 0.00000, 0.00000, 0.03125, 0.00000, 0.00000, -0.03125, 0.03125, 0.09375, -0.06250, 0.00000, 0.06250, 0.03125, 0.03125, 0.00000, 0.09375, 0.06250, -0.03125, 0.00000, -0.03125, -0.03125, 0.06250, -0.03125, 0.03125, 0.06250, 0.06250, 0.03125, 0.06250, -0.03125, 0.00000, 0.00000, 0.00000, -0.03125, 0.06250, 0.00000, 0.06250, 0.00000, -0.03125, -0.03125, 0.00000, 0.06250, 0.03125, 0.03125, 0.06250, 0.06250, 0.03125, 0.00000, 0.00000, 0.00000, 0.03125, 0.06250, 0.00000, 0.03125, 0.03125, -0.03125, -0.03125, 0.00000, 0.03125, 0.03125, -0.03125, 0.03125, 0.00000, 0.03125, -0.03125, 0.03125, 0.00000, 0.00000, 0.03125, 0.00000, -0.03125, 0.06250, 0.03125, 0.00000, 0.00000, 0.03125, -0.03125, 0.03125, 0.00000, -0.03125, 0.03125, 0.00000, 0.06250, -0.03125, 0.06250, -0.03125, -0.06250, 0.03125, -0.06250, 0.06250, -0.03125, 0.03125, 0.06250, -0.03125, -0.03125, -0.03125, 0.03125, -0.03125, -0.06250, -0.03125, 0.00000, 0.00000, 0.06250, 0.00000, -0.03125, 0.00000, 0.03125, 0.03125, 0.00000, -0.03125, 0.03125, 0.00000, 0.03125, 0.00000, 0.06250, -0.06250, -0.03125, 0.00000, 0.00000, -0.03125, 0.03125, 0.00000, 0.00000, 0.03125, 0.00000, -0.03125, -0.03125, 0.00000, 0.03125, -0.03125, 0.03125, -0.03125, 0.00000, 0.03125, 0.03125, 0.00000, -0.03125, 0.03125, 0.06250, 0.03125, -0.03125, 0.03125, 0.00000, 0.03125, 0.00000, -0.03125, 0.00000, -0.06250, -0.03125, 0.00000, -0.03125, 0.00000, -0.03125, -0.03125, -0.03125, -0.03125, -0.03125, -0.03125, 0.06250, 0.00000, -0.03125, 0.03125, -0.03125, -0.03125, -0.12500, -0.03125, -0.09375, 0.03125, 0.00000, 0.03125, 0.00000, 0.03125, 0.03125, -0.03125, -0.06250, -0.06250, 0.00000, 0.00000, 0.00000, -0.06250, -0.03125, 0.03125, 0.00000, -0.03125, -0.03125, 0.06250, 0.06250, 0.06250, 0.03125, 0.03125, 0.03125, 0.00000, -0.06250, 0.03125, 0.06250, -0.03125, 0.03125, 0.00000, -0.03125, -0.03125, 0.03125, 0.00000, -0.06250, 0.03125, 0.03125, -0.03125, 0.03125, 0.00000, 0.00000, -0.03125, 0.00000, -0.03125, 0.03125, 0.00000, 0.03125, 0.03125, 0.06250, -0.03125, 0.03125, 0.03125, 0.00000, 0.00000, 0.00000, -0.03125, -0.06250, -0.03125, 0.06250, 0.00000, 0.09375, -0.03125, -0.03125, 0.03125, 0.03125, 0.00000, -0.03125, 0.00000, 0.00000, 0.00000, -0.06250, 0.06250, 0.06250, -0.03125, -0.03125, 0.06250, 0.06250, 0.03125, 0.03125, 0.00000, 0.03125, 0.00000, 0.06250, -0.03125, -0.03125, 0.00000, 0.00000, -0.03125, -0.03125, 0.00000, -0.06250, 0.00000, 0.06250, 0.06250, 0.00000, 0.03125, 0.00000, 0.03125, -0.03125, 0.03125, 0.00000, 0.06250, 0.03125, -0.03125, 0.00000, 0.06250, 0.03125, -0.03125, -0.06250, -0.03125, 0.03125, -0.09375, -0.06250, -0.06250, 0.00000, 0.00000, -0.03125, 0.03125, 0.00000, 0.00000, 0.00000, 0.00000, -0.03125, -0.03125, -0.06250, -0.03125, 0.00000, -0.03125, -0.06250, 0.06250, 0.06250, -0.03125, -0.09375, 0.00000, 0.00000, -0.03125, 0.06250, 0.00000, -0.03125, 0.03125, -0.03125, 0.06250, 0.03125, 0.06250, 0.00000, 0.06250, 0.00000, 0.00000, 0.00000, -0.03125, -0.03125, 0.00000, 0.00000, 0.06250, 0.03125, 0.06250, 0.00000, 0.03125, 0.03125, -0.06250, 0.00000, -0.03125, 0.06250, 0.06250, -0.03125, -0.03125, 0.06250, -0.09375, -0.06250, -0.06250, 0.00000, -0.06250, 0.03125, -0.03125, 0.00000, 0.03125, 0.00000, 0.00000, 0.03125, -0.03125, -0.03125, -0.06250, 0.00000, 0.00000, 0.03125, -0.03125, -0.06250, 0.00000, -0.03125, 0.00000, -0.06250, -0.06250, -0.03125, -0.03125, 0.06250, 0.03125, -0.06250, -0.03125, 0.03125, -0.03125, 0.03125, 0.03125, 0.03125, -0.03125, 0.00000, 0.03125, 0.03125, 0.03125, -0.06250, 0.03125, 0.00000, 0.03125, -0.03125, -0.03125, -0.03125, 0.00000, -0.03125, -0.06250, -0.06250, -0.03125, -0.06250, 0.00000, 0.03125, 0.00000, -0.06250, 0.00000, -0.03125, -0.03125, 0.00000, -0.03125, 0.00000, -0.03125, 0.00000, 0.00000, 0.03125, 0.03125, 0.03125, -0.03125, 0.00000, 0.06250, 0.03125, 0.03125, 0.03125, 0.03125, -0.03125, -0.03125, 0.00000, 0.00000, 0.00000, 0.03125, 0.03125, 0.00000, 0.00000, 0.00000, -0.06250, 0.00000, 0.00000, 0.03125, -0.06250, 0.00000, 0.03125, -0.03125, 0.03125, 0.00000, 0.03125, -0.03125, -0.03125, 0.03125, -0.03125, 0.00000, -0.03125, 0.00000, 0.03125, 0.09375, 0.06250, 0.00000, 0.00000, 0.00000, -0.03125, -0.03125, 0.03125, 0.09375, 0.03125, 0.03125, 0.06250, -0.03125, 0.03125, -0.06250, 0.06250, 0.06250, 0.00000, 0.03125, -0.06250, -0.03125, 0.03125, 0.12500, 0.00000, 0.00000, 0.03125, -0.06250, -0.03125, -0.03125, 0.03125, 0.06250, 0.00000, 0.06250, 0.03125, 0.00000, 0.03125, -0.03125, 0.00000, 0.00000, 0.06250, -0.03125, 0.06250, 0.03125, -0.06250, 0.00000, 0.03125, 0.00000, 0.00000, 0.03125, -0.03125, 0.00000, 0.03125, 0.06250, -0.03125, 0.06250, -0.06250, 0.03125, 0.03125, 0.03125, 0.00000, 0.00000, -0.03125, -0.03125, -0.06250, 0.06250, -0.06250, 0.09375, 0.03125, -0.03125, -0.03125, 0.03125, 0.00000, 0.03125, 0.03125, 0.00000, 0.00000, 0.00000, 0.09375, -0.03125, 0.03125, 0.03125, 0.00000, 0.00000, 0.00000, -0.06250, -0.03125, 0.03125, 0.06250, 0.03125, 0.06250, 0.00000, 0.06250, 0.03125, 0.09375, 0.03125, 0.03125, 0.09375, 0.03125, 0.00000, -0.06250, 0.03125, 0.00000, 0.00000, -0.03125, 0.03125, 0.00000, 0.00000, -0.06250, 0.03125, 0.00000, -0.03125, 0.00000, -0.06250, -0.03125, 0.09375, 0.00000, 0.00000, 0.03125, 0.06250, -0.03125, 0.00000, 0.03125, 0.00000, -0.03125, 0.03125, 0.03125, 0.03125, -0.03125, 0.03125, 0.00000, 0.06250, 0.00000, 0.03125, 0.06250, 0.00000, 0.06250, -0.03125, -0.03125, 0.03125, 0.00000, 0.03125, 0.00000, 0.03125, 0.06250, 0.00000, 0.06250, 0.03125, 0.00000, -0.06250, 0.00000, -0.03125, 0.03125, 0.06250, 0.06250, -0.06250, 0.00000, 0.03125, -0.03125, -0.06250, 0.00000, -0.03125, 0.00000, -0.03125, -0.03125, 0.03125, 0.00000, 0.03125, 0.00000, -0.03125, 0.03125, 0.03125, 0.00000, -0.06250, -0.03125, -0.09375, -0.03125, 0.06250, 0.03125, -0.06250, 0.00000, 0.00000, 0.06250, 0.06250, 0.00000, -0.03125, -0.03125, 0.00000, 0.00000, -0.03125, 0.03125, 0.00000, -0.09375, 0.00000, 0.00000, 0.03125, 0.06250, -0.03125, -0.03125, -0.03125, 0.03125, 0.06250, 0.06250, 0.00000, 0.06250, -0.03125, 0.03125, 0.06250, 0.00000, 0.03125, 0.00000, 0.06250, 0.03125, 0.00000, 0.03125, 0.06250, -0.03125, 0.06250, 0.06250, 0.03125, -0.06250, 0.06250, -0.03125, -0.03125, 0.06250, 0.00000, -0.03125, 0.06250, 0.03125, 0.00000, 0.00000, 0.03125, 0.03125, 0.03125, -0.03125, 0.03125, -0.03125, -0.09375, -0.03125, 0.00000, 0.00000, -0.03125, 0.06250, 0.03125, -0.06250, 0.03125, 0.03125, -0.06250, 0.06250, 0.03125, 0.06250, -0.06250, 0.00000, 0.06250, 0.03125, 0.09375, 0.00000, 0.00000, 0.03125, 0.00000, 0.06250, -0.03125, 0.00000, 0.03125, 0.00000, 0.03125, 0.03125, 0.03125, 0.00000, 0.03125, 0.03125, 0.00000, 0.03125, 0.00000, 0.03125, -0.03125, 0.00000, -0.03125, 0.03125, 0.00000, 0.00000, -0.03125, 0.03125, 0.00000, 0.00000, -0.03125, -0.06250, 0.03125, 0.00000, 0.03125, -0.06250, 0.00000, 0.00000, 0.00000, -0.03125, 0.03125, 0.03125, -0.03125, 0.00000, 0.03125, 0.03125, 0.03125, 0.00000, -0.03125, 0.03125, -0.03125, 0.03125, -0.06250, 0.06250, 0.03125, 0.03125, -0.03125, 0.06250, 0.03125, 0.00000, -0.06250, -0.03125, -0.03125, 0.03125, -0.03125, -0.06250, 0.00000, 0.03125, 0.03125, 0.03125, -0.03125, 0.03125, -0.03125, 0.00000, -0.03125, 0.03125, -0.03125, 0.03125, -0.03125, 0.03125, 0.03125, 0.00000, 0.06250, -0.06250, 0.00000, 0.03125, -0.03125, -0.06250, 0.03125, -0.03125, 0.00000, -0.03125, 0.00000, -0.06250, 0.03125, 0.00000, -0.03125, 0.03125, 0.00000, -0.03125, 0.03125, -0.03125, -0.03125, 0.00000, 0.00000, 0.00000, 0.03125, 0.03125, -0.03125, 0.00000, 0.03125, 0.00000, 0.00000, 0.00000, 0.06250, 0.00000, -0.09375, 0.00000, 0.03125, -0.03125, -0.03125, 0.00000, 0.03125, 0.00000, 0.06250, -0.03125, 0.00000, 0.00000, 0.03125, 0.03125, 0.00000, -0.03125, 0.06250, 0.00000, -0.06250, -0.03125, 0.03125, -0.03125, 0.00000, 0.00000, -0.03125, -0.03125, 0.03125, 0.00000, 0.03125, 0.03125, 0.03125, 0.03125, -0.06250, 0.03125, 0.00000, 0.00000, 0.00000, -0.03125, -0.03125, 0.00000, 0.03125, -0.03125, 0.03125, 0.00000, 0.00000, 0.03125, 0.00000, -0.03125, -0.03125, 0.00000, 0.00000, 0.00000, 0.00000, 0.00000, 0.00000, 0.00000, 0.00000, -0.03125, 0.00000, -0.03125, -0.03125, -0.06250, -0.03125, -0.06250, 0.03125, 0.03125, -0.03125, -0.06250, 0.03125, -0.03125, -0.03125, 0.03125, 0.03125, 0.00000, -0.03125, -0.03125, 0.03125, -0.03125, -0.06250, 0.00000, 0.00000, 0.00000, 0.00000, -0.06250, -0.03125, -0.03125, 0.06250, 0.03125, 0.00000, 0.00000, 0.03125, 0.03125, 0.03125, 0.00000, -0.03125, 0.03125, -0.06250, -0.06250, 0.00000, 0.03125, 0.00000, 0.00000, 0.03125, -0.03125, 0.00000, 0.06250, -0.03125, -0.03125, 0.00000, 0.03125, -0.03125, -0.03125, -0.03125, 0.00000, -0.03125, 0.00000, -0.03125, 0.03125, -0.03125, -0.03125, -0.03125, 0.00000, -0.03125, -0.03125, -0.03125, 0.03125, -0.06250, -0.06250, -0.03125, 0.03125, -0.03125, 0.06250, 0.03125, 0.03125, 0.03125, -0.06250, -0.06250, -0.06250, -0.03125, 0.00000, -0.06250, 0.00000, 0.00000, -0.03125, 0.00000, 0.03125, 0.00000, -0.06250, 0.03125, -0.03125, 0.03125, 0.00000, -0.03125, 0.03125, 0.03125, 0.03125, 0.00000, 0.00000, 0.03125, 0.00000, 0.00000, -0.03125, 0.00000, 0.00000, -0.03125, -0.03125, 0.00000, -0.03125, 0.00000, 0.06250, 0.00000, 0.00000, -0.03125, 0.03125, -0.03125, 0.00000, -0.03125, -0.03125, -0.06250, -0.03125, 0.00000, 0.06250, -0.03125, -0.03125, 0.06250, 0.00000, -0.03125, -0.03125, -0.03125, 0.00000, 0.06250, -0.03125, -0.06250, 0.03125, 0.00000, 0.00000, 0.03125, 0.03125, -0.06250, 0.00000, 0.03125, 0.00000, 0.00000, 0.03125, 0.00000, 0.03125, -0.03125, 0.03125, 0.03125, -0.03125, -0.06250, 0.03125, -0.03125, 0.00000, -0.03125, -0.03125, 0.00000, 0.03125, -0.06250, -0.06250, 0.00000, -0.03125, 0.00000, 0.03125, -0.03125, -0.03125, -0.03125, 0.00000, -0.06250, -0.03125, 0.03125, -0.03125, 0.03125, 0.03125, 0.03125, -0.03125, 0.06250, -0.03125, 0.03125, 0.00000, -0.03125, -0.03125, 0.03125, -0.03125, 0.00000, 0.00000, -0.06250, 0.00000, 0.06250, -0.03125, -0.03125, 0.00000, 0.03125, 0.03125, 0.00000, 0.03125, 0.03125, 0.03125, -0.06250, -0.03125, 0.03125, 0.03125, -0.03125, 0.00000, 0.03125, -0.03125, 0.03125, -0.03125, 0.06250, -0.06250, 0.00000, 0.03125, -0.03125, 0.00000, 0.00000, -0.03125, 0.00000, 0.00000, 0.00000, -0.06250, 0.03125, 0.00000, -0.06250, -0.03125, 0.03125, 0.03125, 0.03125, 0.03125, 0.00000, -0.03125, 0.09375, -0.06250, 0.09375, -0.06250, 0.03125, 0.00000, -0.03125, 0.06250, 0.00000, 0.00000, -0.03125, 0.03125, 0.06250, -0.03125, -0.06250, 0.00000, 0.00000, 0.00000, -0.06250, 0.06250, 0.00000, 0.00000, -0.03125, 0.03125, -0.03125, 0.03125, -0.03125, 0.03125, 0.06250, 0.00000, 0.00000, -0.06250, 0.03125, 0.03125, -0.03125, -0.03125, 0.06250, -0.03125, 0.00000, -0.06250, -0.06250, 0.03125, 0.00000, 0.00000, -0.03125, -0.03125, 0.03125, -0.03125, 0.03125, 0.03125, 0.00000, -0.06250, -0.03125, -0.09375, -0.06250, 0.00000, -0.03125, -0.03125, -0.03125, -0.03125, -0.03125, -0.03125, -0.06250, 0.03125, -0.03125, -0.06250, -0.06250, 0.00000, -0.06250, 0.03125, 0.03125, -0.03125, 0.00000, 0.00000, 0.00000, -0.03125, 0.03125, 0.03125, 0.00000, 0.00000, 0.00000, 0.00000, 0.00000, 0.00000, 0.00000, 0.03125, -0.03125, 0.03125, 0.00000, 0.00000, 0.00000, 0.03125, -0.03125, 0.00000, -0.06250, -0.03125, 0.03125, 0.00000, -0.03125, -0.03125, -0.03125, -0.06250, 0.00000, 0.06250, 0.00000, -0.03125, 0.00000, 0.00000, -0.03125, -0.03125, 0.00000, 0.00000, 0.00000, 0.00000, 0.03125, -0.06250, -0.03125, -0.03125, 0.03125, 0.06250, -0.03125, -0.06250, -0.03125, 0.00000, 0.00000, 0.03125, 0.00000, 0.00000, -0.03125, 0.00000, -0.06250, 0.06250, 0.00000, -0.03125, -0.03125, 0.06250, 0.03125, -0.03125, 0.03125, 0.03125, 0.03125, 0.00000, -0.06250, -0.03125, 0.06250, -0.03125, -0.03125, -0.03125, 0.03125, 0.06250, 0.00000, 0.00000, 0.00000, -0.03125, 0.03125, -0.06250, -0.06250, -0.03125, 0.03125, 0.06250, -0.03125, 0.03125, 0.00000, 0.00000, -0.03125, 0.03125, 0.03125, 0.03125, -0.03125, -0.03125, 0.00000, -0.03125, 0.06250, 0.00000, 0.03125, 0.00000, -0.03125, -0.06250, 0.03125, 0.00000, -0.03125, 0.03125, 0.00000, 0.06250, 0.00000, -0.06250, -0.03125, 0.00000, 0.00000, 0.00000, -0.03125, -0.06250, -0.03125, 0.00000, -0.06250, 0.00000, -0.06250, -0.03125, 0.00000, 0.00000, 0.00000, -0.03125, -0.06250, 0.00000, -0.03125, 0.00000, 0.00000, -0.06250, 0.00000, 0.00000, 0.00000, 0.03125, 0.00000, 0.03125, 0.03125, -0.06250, -0.03125, 0.00000, 0.00000, 0.00000, 0.03125, -0.06250, -0.03125, 0.00000, 0.00000, 0.00000, -0.06250, -0.03125, 0.00000, -0.03125, 0.03125, -0.03125, 0.00000, 0.03125, -0.03125, 0.03125, 0.03125, -0.03125, -0.06250, -0.03125, 0.03125, 0.03125, -0.06250, -0.03125, 0.03125, -0.03125, 0.00000, -0.03125, 0.03125, -0.03125, -0.03125, -0.03125, -0.03125, -0.06250, 0.03125, 0.06250, -0.03125, 0.00000, -0.06250, 0.03125, 0.03125, 0.00000, -0.03125, 0.00000, 0.03125, -0.06250, 0.03125, 0.03125, 0.00000, 0.00000, -0.03125, 0.00000, 0.03125, 0.03125, 0.03125, 0.00000, 0.06250, -0.03125, -0.03125, -0.06250, 0.03125, -0.03125, 0.00000, 0.03125, -0.03125, 0.03125, -0.06250, -0.06250, 0.00000, 0.03125, -0.06250, 0.03125, 0.03125, -0.06250, -0.03125, 0.00000, 0.03125, 0.06250, -0.03125, 0.00000, 0.00000, -0.03125, -0.03125, 0.03125, 0.03125, -0.03125, 0.03125, -0.03125, 0.06250, -0.03125, -0.03125, 0.00000, -0.03125, 0.03125, -0.03125, 0.03125, 0.03125, 0.00000, 0.03125, 0.00000, -0.06250, 0.00000, 0.00000, 0.00000, -0.06250, 0.00000, -0.03125, 0.03125, -0.03125, 0.00000, 0.00000, -0.03125, 0.03125, -0.06250, -0.03125, -0.06250, 0.03125, -0.09375, 0.00000, -0.03125, 0.03125, -0.03125, 0.03125, 0.03125, -0.03125, 0.03125, -0.03125, 0.06250, -0.06250, 0.00000, -0.06250, -0.03125, -0.03125, 0.03125, 0.03125, -0.03125, 0.00000, 0.00000, 0.00000, -0.03125, 0.03125, 0.06250, 0.00000, 0.00000, -0.06250, 0.00000, 0.00000, -0.06250, 0.00000, 0.03125, -0.06250, -0.03125, 0.00000, 0.00000, 0.03125, 0.06250, 0.03125, 0.00000, 0.00000, -0.03125, -0.03125, 0.03125, 0.00000, -0.03125, -0.03125, 0.06250, 0.00000, -0.03125, -0.03125, 0.06250, -0.03125, -0.03125, 0.03125, 0.00000, 0.06250, 0.00000, 0.00000, 0.03125, 0.03125, 0.03125, 0.06250, 0.00000, -0.03125, 0.00000, -0.06250, -0.03125, -0.03125, 0.06250, 0.00000, -0.06250, 0.03125, 0.00000, 0.06250, -0.06250, 0.00000, 0.00000, 0.00000, 0.00000, 0.00000, -0.03125, 0.03125, 0.00000, 0.03125, -0.03125, 0.03125, 0.00000, 0.03125, 0.00000, 0.00000, 0.00000, 0.06250, 0.00000, 0.00000, 0.00000, 0.00000, 0.00000, -0.03125, -0.03125, -0.03125, -0.06250, -0.03125, 0.03125, 0.00000, -0.03125, 0.06250, 0.00000, -0.03125, -0.03125, 0.03125, -0.03125, 0.03125, 0.03125, -0.03125, 0.00000, -0.06250, 0.00000, 0.03125, 0.00000, 0.00000, 0.00000, -0.03125, 0.03125, -0.03125, -0.03125, 0.09375, -0.06250, -0.03125, 0.06250, -0.03125, 0.06250, 0.00000, -0.03125, -0.06250, -0.06250, -0.06250, 0.00000, 0.06250, 0.03125, 0.00000, 0.03125, 0.06250, 0.03125, 0.03125, -0.06250, 0.03125, -0.06250, 0.06250, 0.03125, -0.09375, -0.03125, 0.03125, -0.03125, 0.00000, 0.00000, 0.06250, 0.03125, 0.03125, 0.00000, -0.09375, 0.00000, 0.06250, -0.03125, 0.03125, -0.03125, 0.03125, 0.06250, -0.03125, 0.06250, 0.09375, -0.03125, 0.03125, 0.03125, 0.00000, 0.06250, -0.03125, 0.06250, 0.06250, 0.09375, 0.00000, 0.00000, 0.00000, 0.03125, 0.09375, 0.00000, 0.03125, 0.03125, 0.03125, 0.00000, 0.03125, -0.03125, 0.00000, 0.09375, -0.03125, 0.03125, 0.06250, 0.03125, 0.03125, 0.03125, -0.06250, -0.03125, -0.06250, -0.03125, 0.06250, 0.00000, 0.03125, 0.00000, 0.12500, -0.06250, -0.06250, 0.03125, 0.09375, 0.03125, -0.03125, 0.03125, 0.09375, -0.03125, 0.09375, 0.00000, 0.00000, 0.06250, 0.03125, 0.06250, -0.06250, 0.03125, 0.06250, -0.03125, 0.06250, 0.00000, -0.03125, 0.06250, 0.00000, -0.03125, -0.06250, -0.03125, -0.03125, 0.06250, 0.03125, -0.03125, -0.06250, 0.06250, 0.00000, 0.06250, 0.00000, 0.00000, 0.00000, 0.06250, -0.06250, -0.03125, 0.06250, -0.03125, 0.03125, -0.03125, -0.03125, 0.03125, 0.00000, 0.00000, 0.00000, 0.00000, 0.00000, 0.03125, -0.03125, 0.00000, -0.03125, 0.03125, -0.03125, 0.03125, 0.00000, -0.03125, -0.03125, 0.06250, 0.00000, 0.03125, -0.06250, 0.06250, 0.06250, 0.06250, 0.00000, 0.03125, 0.00000, 0.03125, -0.03125, -0.03125, -0.06250, 0.06250, 0.03125, 0.00000, 0.00000, 0.00000, 0.03125, 0.03125, 0.00000, -0.06250, 0.00000, 0.00000, -0.03125, 0.00000, 0.00000, 0.00000, 0.06250, -0.03125, 0.06250, 0.00000, 0.03125, -0.06250, 0.09375, 0.00000, -0.03125, -0.03125, 0.03125, -0.06250, -0.03125, -0.03125, 0.06250, 0.00000, -0.03125, 0.06250, 0.03125, 0.00000, -0.03125, -0.03125, -0.03125, -0.03125, 0.03125, -0.03125, -0.06250, -0.09375, -0.03125, 0.03125, 0.03125, 0.03125, 0.03125, -0.03125, 0.00000, 0.06250, -0.03125, 0.03125, 0.00000, 0.03125, 0.03125, -0.06250, 0.03125, -0.03125, 0.03125, -0.06250, 0.06250, -0.03125, -0.03125, 0.06250, 0.03125, 0.03125, 0.03125, 0.03125, 0.00000, 0.06250, 0.03125, 0.00000, 0.00000, 0.00000, -0.03125, 0.00000, -0.06250, 0.06250, 0.03125, 0.06250, 0.00000, -0.03125, 0.06250, 0.00000, 0.00000, 0.03125, 0.03125, -0.03125, -0.03125, 0.00000, -0.03125, -0.03125, 0.06250, -0.03125, 0.06250, 0.00000, 0.06250, 0.03125, 0.03125, 0.06250, -0.03125, -0.03125, 0.03125, 0.06250, -0.03125, -0.03125, 0.00000, 0.06250, 0.00000, 0.06250, 0.03125, 0.00000, 0.00000, 0.03125, -0.03125, 0.00000, 0.00000, 0.06250, -0.03125, 0.00000, -0.06250, -0.03125, 0.00000, 0.00000, -0.03125, -0.03125, 0.09375, 0.03125, 0.03125, 0.06250, 0.00000, -0.03125, -0.03125, 0.03125, 0.00000, 0.00000, 0.03125, -0.03125, 0.00000, 0.06250, 0.03125, 0.00000, 0.03125, 0.00000, -0.03125, 0.03125, 0.00000, -0.03125, 0.06250, 0.00000, -0.03125, 0.03125, -0.03125, 0.03125, -0.03125, 0.06250, 0.06250, 0.00000, 0.03125, 0.00000, -0.03125, -0.03125, -0.03125, 0.06250, 0.03125, 0.03125, 0.03125, -0.06250, -0.03125, -0.03125, -0.03125, -0.03125, 0.03125, 0.09375, 0.03125, 0.03125, -0.03125, 0.00000, 0.03125, 0.06250, 0.03125, -0.06250, 0.00000, 0.00000, 0.03125, 0.00000, 0.03125, -0.03125, -0.03125, -0.03125, 0.03125, -0.03125, 0.00000, -0.03125, 0.00000, 0.00000, 0.03125, 0.00000, -0.03125, -0.06250, -0.03125, 0.06250, 0.00000, -0.03125, -0.03125, -0.03125, -0.06250, 0.03125, 0.09375, -0.06250, 0.03125, 0.03125, 0.06250, -0.06250, 0.00000, 0.03125, 0.03125, -0.03125, 0.00000, 0.03125, 0.00000, 0.03125, 0.00000, 0.03125, 0.00000, -0.03125, -0.03125, 0.03125, 0.03125, -0.06250, 0.03125, 0.03125, 0.00000, 0.03125, -0.03125, 0.00000, 0.00000, -0.06250, 0.03125, 0.00000, 0.06250, 0.00000, -0.03125, -0.03125, -0.03125, -0.03125, -0.03125, 0.00000, 0.03125, -0.03125, -0.03125, -0.03125, 0.03125, 0.00000, -0.03125, 0.00000, 0.03125, 0.03125, 0.00000, 0.00000, -0.03125, 0.03125, -0.03125, 0.00000, -0.09375, 0.06250, 0.03125, 0.03125, 0.03125, 0.03125, 0.03125, 0.03125, 0.03125, 0.00000, -0.09375, -0.03125, -0.03125, 0.06250, 0.03125, 0.00000, 0.06250, 0.03125, 0.03125, 0.03125, -0.06250, -0.06250, 0.03125, 0.06250, 0.03125, -0.03125, 0.06250, -0.03125, 0.00000, 0.03125, 0.03125, 0.00000, -0.06250, 0.06250, 0.03125, -0.03125, -0.03125, 0.03125, 0.03125, 0.00000, 0.00000, 0.00000, 0.03125, 0.00000, -0.03125, 0.06250, 0.03125, 0.00000, 0.00000, 0.06250, -0.03125, -0.03125, -0.03125, 0.03125, 0.00000, -0.03125, -0.06250, 0.03125, -0.03125, 0.03125, 0.09375, 0.00000, 0.00000, 0.00000, 0.00000, 0.06250, 0.00000, 0.03125, 0.03125, -0.03125, 0.06250, 0.00000, 0.06250, 0.03125, 0.03125, 0.03125, 0.00000, 0.00000, 0.03125, -0.06250, 0.03125, 0.00000, 0.03125, 0.00000, 0.00000, -0.06250, 0.06250, 0.00000, 0.03125, -0.06250, 0.00000, -0.03125, 0.06250, 0.03125, 0.06250, -0.03125, -0.03125, 0.03125, 0.03125, 0.00000, 0.00000, -0.06250, 0.03125, 0.03125, 0.03125, 0.06250, -0.03125, -0.03125, -0.06250, 0.03125, 0.03125, 0.00000, 0.03125, -0.03125, 0.00000, 0.00000, -0.06250, -0.03125, 0.03125, 0.00000, 0.00000, 0.00000, -0.03125, 0.00000, 0.00000, 0.00000, 0.00000, 0.06250, -0.06250, 0.06250, -0.03125, 0.00000, 0.00000, -0.03125, 0.03125, 0.03125, 0.00000, 0.03125, 0.06250, -0.03125, 0.06250, -0.03125, -0.03125, -0.03125, 0.03125, 0.00000, 0.00000, 0.06250, 0.03125, -0.03125, -0.03125, 0.03125, 0.00000, -0.03125, 0.00000, 0.12500, 0.00000, 0.03125, 0.00000, -0.03125, -0.03125, 0.03125, -0.06250, -0.03125, 0.06250, 0.09375, 0.12500, 0.09375, -0.06250, 0.00000, -0.03125, 0.03125, -0.06250, 0.09375, 0.00000, -0.03125, -0.03125, -0.06250, -0.06250, -0.06250, 0.00000, 0.00000, 0.06250, -0.06250, 0.06250, 0.00000, 0.03125, -0.03125, 0.06250, 0.03125, 0.00000, 0.00000, -0.03125, 0.03125, -0.06250, 0.00000, -0.06250, -0.03125, 0.06250, 0.06250, 0.03125, 0.00000, -0.03125, 0.03125, 0.00000, 0.00000, 0.03125, -0.06250, 0.00000, 0.03125, -0.03125, 0.00000, 0.03125, 0.03125, -0.03125, 0.00000, 0.00000, 0.03125, 0.03125, 0.00000, -0.06250, 0.00000, -0.06250, -0.03125, -0.03125, 0.00000, -0.03125, 0.00000, -0.03125, -0.06250, 0.06250, 0.00000, 0.00000, 0.00000, 0.03125, 0.03125, 0.06250, 0.00000, 0.03125, 0.00000, -0.03125, -0.03125, 0.03125, -0.03125, -0.03125, -0.03125, 0.03125, 0.03125, -0.03125, -0.06250, 0.00000, -0.06250, -0.03125, 0.03125, 0.06250, -0.06250, 0.00000, 0.06250, 0.09375, 0.00000, -0.03125, 0.06250, 0.06250, 0.06250, -0.06250, 0.03125, -0.06250, -0.03125, -0.06250, -0.03125, 0.00000, 0.03125, -0.03125, 0.00000, 0.03125, 0.03125, -0.03125, 0.00000, 0.00000, 0.00000, -0.09375, 0.06250, 0.00000, -0.03125, 0.03125, 0.00000, 0.03125, -0.03125, -0.03125, -0.03125, 0.00000, 0.03125, 0.00000, -0.03125, 0.06250, 0.00000, -0.03125, 0.00000, 0.00000, -0.03125, 0.03125, -0.03125, 0.03125, 0.03125, 0.06250, 0.03125, 0.03125, 0.03125, 0.03125, -0.03125, 0.00000, -0.03125, 0.06250, 0.09375, -0.03125, 0.00000, 0.03125, 0.00000, 0.12500, 0.00000, -0.06250, 0.09375, 0.00000, -0.03125, 0.00000, 0.03125, 0.03125, 0.00000, -0.03125, 0.06250, -0.06250, 0.03125, -0.06250, 0.00000, -0.06250, 0.00000, -0.03125, -0.06250, 0.03125, -0.03125, 0.00000, 0.03125, 0.03125, -0.03125, 0.00000, 0.06250, 0.03125, 0.03125, -0.03125, 0.03125, 0.06250, 0.03125, 0.00000, 0.03125, -0.03125, 0.00000, -0.03125, 0.00000, 0.06250, -0.03125, 0.00000, 0.00000, -0.03125, 0.06250, 0.03125, 0.00000, 0.06250, 0.03125, 0.06250, -0.06250, -0.06250, -0.03125, -0.06250, -0.03125, 0.00000, 0.03125, -0.03125, 0.00000, 0.03125, 0.00000, 0.00000, 0.03125, -0.03125, -0.03125, -0.03125, 0.03125, 0.03125, 0.00000, 0.03125, 0.00000, 0.03125, -0.03125, 0.00000, 0.00000, -0.03125, 0.03125, -0.06250, 0.03125, -0.06250, -0.06250, 0.06250, 0.00000, -0.03125, 0.00000, -0.06250, 0.00000, -0.03125, -0.06250, 0.03125, 0.00000, 0.00000, 0.03125, 0.03125, 0.00000, -0.03125, 0.00000, 0.00000, 0.03125, -0.03125, 0.00000, 0.00000, 0.00000, 0.03125, 0.00000, 0.03125, -0.03125, 0.03125, 0.00000, 0.00000, -0.06250, 0.03125, -0.03125, 0.00000, 0.00000, 0.03125, 0.06250, -0.03125, 0.03125, 0.06250, 0.00000, 0.06250, -0.03125, -0.06250, -0.03125, 0.00000, 0.03125, 0.06250, 0.03125, 0.00000, -0.03125, 0.06250, 0.00000, -0.03125, -0.06250, 0.09375, -0.03125, 0.03125, 0.06250, 0.03125, 0.03125, 0.03125, 0.06250, -0.03125, 0.00000, -0.03125, -0.06250, -0.03125, 0.00000, 0.00000, 0.03125, 0.00000, -0.03125, 0.03125, -0.03125, 0.06250, 0.00000, -0.06250, 0.09375, 0.03125, 0.06250, 0.00000, 0.09375, -0.06250, 0.00000, 0.00000, 0.03125, 0.03125, 0.03125, -0.03125, 0.06250, 0.00000, 0.00000, 0.00000, 0.00000, 0.03125, 0.03125, 0.00000, 0.00000, 0.00000, -0.03125, 0.09375, -0.03125, 0.06250, 0.03125, -0.06250, 0.00000, 0.03125, -0.03125, 0.00000, -0.06250, 0.03125, -0.03125, 0.03125, -0.03125, -0.03125, 0.03125, -0.03125, 0.00000, 0.00000, 0.03125, 0.00000, -0.03125, -0.03125, 0.06250, 0.00000, 0.03125, 0.03125, 0.03125, -0.03125, 0.00000, -0.03125, -0.06250, -0.03125, -0.06250, 0.00000, 0.00000, 0.06250, -0.03125, 0.00000, 0.00000, 0.00000, 0.00000, -0.03125, -0.03125, 0.00000, -0.03125, 0.03125, 0.12500, 0.00000, 0.03125, 0.03125, -0.03125, 0.00000, 0.03125, 0.00000, -0.03125, -0.03125, 0.03125, 0.03125, 0.06250, 0.03125, 0.03125, 0.06250, 0.00000, 0.03125, 0.03125, 0.00000, 0.00000, -0.03125, -0.03125, 0.00000, 0.00000, 0.00000, 0.00000, 0.06250, 0.00000, 0.00000, 0.00000, 0.03125, -0.03125, -0.03125, -0.03125, 0.03125, 0.03125, 0.03125, -0.03125, -0.06250, -0.03125, 0.03125, 0.03125, 0.03125, 0.03125, 0.00000, 0.00000, -0.03125, 0.00000, 0.00000, 0.00000, -0.06250, -0.03125, 0.06250, -0.09375, 0.03125, 0.03125, 0.03125, -0.06250, 0.03125, 0.00000, 0.00000, 0.00000, 0.00000, 0.03125, 0.00000, -0.06250, -0.03125, 0.00000, 0.06250, -0.03125, -0.03125, -0.03125, 0.00000, -0.09375, 0.00000, 0.03125, 0.06250, 0.00000, 0.00000, -0.03125, -0.03125, -0.03125, 0.03125, 0.00000, -0.03125, 0.00000, 0.03125, -0.03125, -0.03125, 0.03125, 0.03125, -0.03125, -0.03125, -0.06250, -0.03125, 0.00000, -0.03125, 0.03125, 0.00000, 0.03125, 0.00000, 0.00000, -0.09375, 0.00000, 0.00000, -0.06250, -0.03125, 0.03125, 0.06250, -0.03125, -0.03125, -0.06250, 0.03125, -0.03125, 0.00000, -0.06250, 0.00000, -0.03125, -0.03125, 0.03125, -0.06250, 0.00000, -0.03125, 0.00000, -0.03125, 0.03125, 0.03125, 0.03125, 0.06250, 0.00000, 0.00000, 0.03125, 0.03125, -0.03125, 0.00000, 0.00000, 0.03125, 0.03125, -0.03125, 0.06250, 0.03125, 0.00000, 0.00000, 0.03125, -0.03125, -0.06250, -0.03125, 0.00000, -0.03125, 0.00000, 0.00000, -0.03125, 0.00000, 0.03125, 0.03125, 0.03125, 0.03125, -0.03125, -0.03125, 0.03125, -0.06250, 0.03125, 0.06250, 0.06250, 0.03125, -0.03125, -0.06250, 0.00000, 0.03125, 0.00000, -0.06250, 0.03125, 0.06250, -0.06250, -0.06250, 0.00000, 0.03125, -0.03125, 0.03125, 0.00000, -0.03125, -0.03125, -0.03125, -0.06250, 0.03125, 0.03125, 0.03125, -0.03125, -0.03125, 0.03125, 0.00000, 0.03125, 0.00000, 0.00000, 0.00000, -0.03125, -0.06250, 0.03125, -0.03125, 0.03125, 0.06250, 0.03125, 0.06250, -0.03125, 0.00000, 0.06250, -0.03125, 0.03125, -0.03125, 0.03125, 0.00000, 0.06250, -0.06250, -0.03125, -0.06250, 0.03125, 0.00000, 0.03125, -0.03125, 0.00000, 0.00000, -0.06250, -0.03125, 0.03125, 0.00000, 0.06250, 0.03125, 0.00000, 0.00000, 0.03125, -0.06250, -0.06250, 0.00000, -0.03125, 0.00000, 0.03125, 0.00000, -0.03125, 0.06250, 0.00000, -0.03125, 0.00000, 0.00000, 0.00000, 0.00000, -0.03125, 0.06250, 0.00000, -0.03125, 0.00000, 0.03125, 0.00000, 0.00000, 0.00000, -0.06250, 0.03125, 0.06250, -0.03125, 0.00000, 0.03125, -0.03125, 0.03125, 0.00000, 0.00000, -0.03125, 0.03125, 0.00000, 0.00000, -0.06250, -0.03125, 0.06250, 0.00000, 0.03125, -0.03125, 0.03125, 0.00000, 0.00000, -0.03125, -0.03125, 0.03125, 0.06250, 0.06250, 0.00000, 0.00000, 0.00000, 0.03125, 0.00000, 0.03125, -0.06250, 0.00000, 0.06250, -0.03125, 0.03125, -0.06250, 0.03125, 0.03125, 0.03125, -0.03125, -0.03125, 0.03125, 0.00000, 0.00000, -0.03125, -0.06250, 0.03125, -0.03125, 0.00000, -0.03125, 0.00000, 0.03125, -0.03125, 0.00000, -0.06250, 0.00000, 0.00000, -0.03125, 0.00000, 0.00000, -0.03125, 0.03125, 0.03125, 0.03125, 0.00000, -0.03125, 0.03125, 0.06250, 0.06250, 0.03125, 0.00000, 0.00000, 0.03125, 0.00000, 0.06250, 0.00000, 0.09375, 0.03125, 0.03125, 0.00000, 0.00000, 0.06250, 0.00000, 0.00000, 0.03125, 0.06250, 0.00000, 0.03125, 0.00000, -0.09375, 0.03125, -0.03125, 0.00000, 0.00000, 0.03125, 0.03125, 0.06250, -0.03125, 0.03125, -0.03125, 0.03125, -0.03125, 0.03125, 0.03125, -0.03125, 0.03125, -0.06250, 0.00000, -0.03125, -0.03125, 0.00000, -0.03125, 0.00000, -0.03125, 0.00000, 0.03125, -0.03125, -0.03125, -0.06250, -0.03125, 0.00000, 0.03125, 0.00000, 0.00000, 0.00000, 0.00000, 0.06250, 0.06250, -0.06250, -0.03125, -0.03125, -0.03125, 0.00000, 0.03125, 0.00000, 0.00000, -0.06250, -0.03125, 0.00000, 0.00000, 0.03125, -0.06250, -0.03125, 0.00000, 0.03125, 0.03125, 0.03125, 0.03125, 0.00000, -0.03125, 0.03125, 0.06250, 0.00000, 0.00000, -0.03125, 0.06250, 0.03125, 0.03125, 0.00000, 0.03125, 0.00000, -0.03125, 0.00000, 0.00000, 0.06250, 0.06250, 0.00000, 0.03125, 0.00000, -0.03125, -0.03125, -0.03125, 0.00000, -0.03125, -0.03125, 0.00000, 0.00000, 0.00000, 0.06250, -0.06250, 0.00000, 0.00000, 0.00000, 0.00000, 0.00000, 0.06250, -0.03125, -0.03125, 0.00000, 0.00000, 0.00000, -0.06250, -0.03125, 0.00000, 0.00000, 0.00000, -0.03125, 0.03125, -0.03125, 0.00000, 0.03125, 0.06250, -0.03125, 0.00000, 0.03125, -0.03125, 0.00000, -0.03125, 0.06250, 0.00000, 0.00000, 0.03125, -0.03125, -0.06250, -0.06250, -0.06250, 0.03125, 0.06250, -0.06250, 0.00000, 0.03125, -0.06250, 0.09375, 0.03125, 0.00000, 0.06250, -0.03125, -0.03125, 0.03125, -0.03125, -0.06250, 0.03125, -0.06250, 0.00000, 0.06250, 0.00000, 0.03125, -0.03125, -0.06250, 0.06250, 0.00000, 0.00000, 0.03125, 0.00000, -0.03125, 0.00000, -0.03125, 0.06250, 0.09375, 0.03125, -0.03125, 0.03125, 0.00000, 0.06250, 0.03125, 0.00000, 0.00000, -0.06250, 0.00000, 0.03125, 0.03125, 0.03125, 0.03125, -0.03125, 0.03125, 0.09375, -0.03125, 0.00000, 0.03125, 0.00000, -0.03125, 0.00000, -0.03125, 0.06250, 0.06250, 0.03125, 0.03125, 0.00000, -0.03125, 0.00000, 0.03125, 0.03125, -0.03125, 0.03125, 0.03125, 0.03125, 0.03125, 0.03125, 0.00000, 0.00000, 0.03125, 0.03125, -0.06250, 0.03125, 0.03125, 0.03125, -0.03125, -0.03125, 0.03125, 0.00000, 0.00000, -0.06250, -0.03125, -0.03125, 0.00000, 0.03125, 0.03125, 0.00000, 0.00000, 0.03125, -0.03125, -0.03125, -0.03125, 0.06250, 0.00000, 0.00000, 0.03125, 0.00000, -0.03125, 0.00000, -0.03125, -0.03125, 0.03125, -0.03125, 0.00000, 0.00000, -0.03125, -0.03125, -0.03125, 0.03125, 0.00000, 0.03125, 0.06250, 0.06250, -0.03125, 0.00000, 0.06250, 0.06250, 0.03125, 0.00000, -0.06250, 0.00000,